{"learner":{"attributes":{"best_iteration":"88","best_score":"0.7478223036409435","scikit_learn":"{\"_estimator_type\": \"classifier\"}"},"feature_names":["Aspect_max","Aspect_mean","Aspect_min","Aspect_std","Dis2Fault_max","Dis2Fault_mean","Dis2Fault_min","Dis2Fault_std","Dis2River_max","Dis2River_mean","Dis2River_min","Dis2River_std","Dis2Road_max","Dis2Road_mean","Dis2Road_min","Dis2Road_std","Lithology_mode","Precipitation_max","Precipitation_mean","Precipitation_min","Precipitation_std","Slope_max","Slope_mean","Slope_min","Slope_std","dMNDWI_max","dMNDWI_mean","dMNDWI_min","dMNDWI_std","dNBR_max","dNBR_mean","dNBR_min","dNBR_std","dNDVI_max","dNDVI_mean","dNDVI_min","dNDVI_std"],"feature_types":["float","float","float","float","float","float","float","float","float","float","float","float","float","float","float","float","int","float","float","float","float","float","float","float","float","float","float","float","float","float","float","float","float","float","float","float","float"],"gradient_booster":{"model":{"gbtree_model_param":{"num_parallel_tree":"1","num_trees":"139"},"iteration_indptr":[0,1,2,3,4,5,6,7,8,9,10,11,12,13,14,15,16,17,18,19,20,21,22,23,24,25,26,27,28,29,30,31,32,33,34,35,36,37,38,39,40,41,42,43,44,45,46,47,48,49,50,51,52,53,54,55,56,57,58,59,60,61,62,63,64,65,66,67,68,69,70,71,72,73,74,75,76,77,78,79,80,81,82,83,84,85,86,87,88,89,90,91,92,93,94,95,96,97,98,99,100,101,102,103,104,105,106,107,108,109,110,111,112,113,114,115,116,117,118,119,120,121,122,123,124,125,126,127,128,129,130,131,132,133,134,135,136,137,138,139],"tree_info":[0,0,0,0,0,0,0,0,0,0,0,0,0,0,0,0,0,0,0,0,0,0,0,0,0,0,0,0,0,0,0,0,0,0,0,0,0,0,0,0,0,0,0,0,0,0,0,0,0,0,0,0,0,0,0,0,0,0,0,0,0,0,0,0,0,0,0,0,0,0,0,0,0,0,0,0,0,0,0,0,0,0,0,0,0,0,0,0,0,0,0,0,0,0,0,0,0,0,0,0,0,0,0,0,0,0,0,0,0,0,0,0,0,0,0,0,0,0,0,0,0,0,0,0,0,0,0,0,0,0,0,0,0,0,0,0,0,0,0],"trees":[{"base_weights":[2.2322098E-2,7.542515E-1,-1.1534616E0,-1.2607595E-1,1.4778261E0,-1.5904546E0,9.98E-1,9.4631577E-1,-1.0213333E0,6.0695654E-1,1.6706849E0,-9.361905E-2,-7.5724137E-1,-1.08888885E-2,7.32E-2,-3.311111E-2,1.2715151E0,5.5333335E-2,-1.399E0,6.2374998E-2,-2.709091E-2,1.8026229E0,7.475E-1,-1.0315789E-1,-7.128572E-2,-0E0,8.392E-2,1.08888885E-2,-8.28E-2,9.294737E-2,2.475E-2,-2.475E-2,6.65E-2,-6.64E-1,4.975E-2,-2.475E-2,2.475E-2,-5.98E-2,1.08888885E-2],"categories":[],"categories_nodes":[],"categories_segments":[],"categories_sizes":[],"default_left":[0,0,0,0,0,0,0,0,0,0,0,0,0,0,0,0,0,0,0,0,0,0,0,0,0,0,0,0,0,0,0,0,0,0,0,0,0,0,0],"id":0,"left_children":[1,3,5,7,9,11,13,15,17,19,21,-1,23,-1,-1,-1,25,-1,27,-1,-1,29,31,33,-1,35,-1,-1,-1,-1,-1,-1,-1,37,-1,-1,-1,-1,-1],"loss_changes":[5.8310432E1,2.6793858E1,2.6037708E1,1.992857E1,2.8261528E0,3.7237701E0,3.1640515E0,5.817527E0,1.059249E1,4.914056E0,8.4994507E-1,0E0,3.007607E0,0E0,0E0,0E0,4.268223E0,0E0,4.53014E0,0E0,0E0,1.7946243E-1,3.5617251E0,3.5828626E0,0E0,9.801E-1,0E0,0E0,0E0,0E0,0E0,0E0,0E0,2.0293908E0,0E0,0E0,0E0,0E0,0E0],"parents":[2147483647,0,0,1,1,2,2,3,3,4,4,5,5,6,6,7,7,8,8,9,9,10,10,12,12,16,16,18,18,21,21,22,22,23,23,25,25,33,33],"right_children":[2,4,6,8,10,12,14,16,18,20,22,-1,24,-1,-1,-1,26,-1,28,-1,-1,30,32,34,-1,36,-1,-1,-1,-1,-1,-1,-1,38,-1,-1,-1,-1,-1],"split_conditions":[1.078328E3,2.9033129E1,5.566588E2,9.650415E2,1.9081368E-1,4.1846573E2,6.6216223E2,6.665956E3,-1.51275145E-2,2.1846466E2,7.0910044E-2,-9.361905E-2,1.4553597E3,-1.08888885E-2,7.32E-2,-3.311111E-2,6.5161853E0,5.5333335E-2,1.0844049E2,6.2374998E-2,-2.709091E-2,3.040199E2,2.8543451E1,6.896542E0,-7.128572E-2,2.0177605E2,8.392E-2,1.08888885E-2,-8.28E-2,9.294737E-2,2.475E-2,-2.475E-2,6.65E-2,9.664796E3,4.975E-2,-2.475E-2,2.475E-2,-5.98E-2,1.08888885E-2],"split_indices":[13,22,15,19,33,11,11,5,30,1,32,0,13,0,0,0,24,0,7,0,0,1,3,24,0,1,0,0,0,0,0,0,0,4,0,0,0,0,0],"split_type":[0,0,0,0,0,0,0,0,0,0,0,0,0,0,0,0,0,0,0,0,0,0,0,0,0,0,0,0,0,0,0,0,0,0,0,0,0,0,0],"sum_hessian":[6.575E1,4.075E1,2.5E1,1.875E1,2.2E1,2.1E1,4E0,8.5E0,1.025E1,4.75E0,1.725E1,1.475E1,6.25E0,1.25E0,2.75E0,1.25E0,7.25E0,1.25E0,9E0,3E0,1.75E0,1.425E1,3E0,3.75E0,2.5E0,2E0,5.25E0,1.25E0,7.75E0,1.325E1,1E0,1E0,2E0,2.75E0,1E0,1E0,1E0,1.5E0,1.25E0],"tree_param":{"num_deleted":"0","num_feature":"37","num_nodes":"39","size_leaf_vector":"1"}},{"base_weights":[7.518272E-2,7.826875E-1,-8.804784E-2,-6.483087E-1,1.2352026E0,-7.7599764E-2,-9.966863E-4,1.4440645E0,-6.63361E-2,7.491836E-1,-6.6559084E-2,7.163947E-1,1.6057924E0,-2.0604944E-2,6.291647E-2,-2.509812E-1,6.74709E-2,2.133525E-2,1.6953099E0,-3.9273746E-2,1.900139E-2,8.8316575E-2,9.807389E-3],"categories":[],"categories_nodes":[],"categories_segments":[],"categories_sizes":[],"default_left":[0,0,0,0,0,0,0,0,0,0,0,0,0,0,0,0,0,0,0,0,0,0,0],"id":1,"left_children":[1,3,-1,5,7,-1,9,11,-1,13,-1,15,17,-1,-1,19,-1,-1,21,-1,-1,-1,-1],"loss_changes":[8.503283E1,3.1361639E1,0E0,6.9948606E0,2.1286613E1,0E0,8.977398E0,2.8220901E0,0E0,3.9236195E0,0E0,5.2429113E0,2.101181E0,0E0,0E0,1.6508147E0,0E0,0E0,2.2654037E0,0E0,0E0,0E0,0E0],"parents":[2147483647,0,0,1,1,3,3,4,4,6,6,7,7,9,9,11,11,12,12,15,15,18,18],"right_children":[2,4,-1,6,8,-1,10,12,-1,14,-1,16,18,-1,-1,20,-1,-1,22,-1,-1,-1,-1],"split_conditions":[2.4206735E2,4.181002E1,-8.804784E-2,9.664796E3,5.8226055E3,-7.7599764E-2,9.9496747E2,8.492992E3,-6.63361E-2,1.7044775E-2,-6.6559084E-2,9.998621E2,-6.5761744E-3,-2.0604944E-2,6.291647E-2,2.397611E-2,6.74709E-2,2.133525E-2,1.010363E1,-3.9273746E-2,1.900139E-2,8.8316575E-2,9.807389E-3],"split_indices":[14,21,0,4,8,0,19,4,0,14,0,17,26,0,0,10,0,0,23,0,0,0,0],"split_type":[0,0,0,0,0,0,0,0,0,0,0,0,0,0,0,0,0,0,0,0,0,0,0],"sum_hessian":[6.3402885E1,4.6185703E1,1.7217184E1,1.0986892E1,3.519881E1,3.9956603E0,6.9912314E0,3.295258E1,2.2462335E0,4.744663E0,2.2465684E0,6.9906564E0,2.5961922E1,1.4982816E0,3.2463813E0,2.997558E0,3.993098E0,2.2467725E0,2.3715149E1,1.4989414E0,1.4986167E0,2.246596E1,1.2491899E0],"tree_param":{"num_deleted":"0","num_feature":"37","num_nodes":"23","size_leaf_vector":"1"}},{"base_weights":[2.1622555E-2,7.606478E-1,-1.4247316E0,-2.8508016E-1,1.2808514E0,-1.8820459E-2,-8.484318E-2,-7.273557E-1,6.7081496E-2,2.8564084E-1,1.4570638E0,-4.2609263E-2,4.0926527E-2,-1.1948484E0,1.8737043E-1,5.5393007E-2,-4.6689983E-2,8.355978E-3,1.5207704E0,-6.755443E-2,-8.641596E-3,5.384277E-2,-5.646641E-2,8.388987E-2,9.8166674E-1,5.051555E-3,7.345464E-2],"categories":[],"categories_nodes":[],"categories_segments":[],"categories_sizes":[],"default_left":[0,0,0,0,0,0,0,0,0,0,0,0,0,0,0,0,0,0,0,0,0,0,0,0,0,0,0],"id":2,"left_children":[1,3,5,7,9,11,-1,13,-1,15,17,-1,-1,19,21,-1,-1,-1,23,-1,-1,-1,-1,-1,25,-1,-1],"loss_changes":[6.75263E1,2.3114092E1,8.125465E0,1.1543978E1,4.494686E0,3.825623E0,0E0,5.4549007E0,0E0,6.530507E0,1.6702538E0,0E0,0E0,1.0642233E0,7.0557694E0,0E0,0E0,0E0,2.2094727E-1,0E0,0E0,0E0,0E0,0E0,3.0435715E0,0E0,0E0],"parents":[2147483647,0,0,1,1,2,2,3,3,4,4,5,5,7,7,9,9,10,10,13,13,14,14,18,18,24,24],"right_children":[2,4,6,8,10,12,-1,14,-1,16,18,-1,-1,20,22,-1,-1,-1,24,-1,-1,-1,-1,-1,26,-1,-1],"split_conditions":[9.898447E0,2.6828333E1,1.01549866E3,1.075274E1,3.9616748E2,2.533506E1,-8.484318E-2,2.1794629E4,6.7081496E-2,3.4787183E2,2.7522465E1,-4.2609263E-2,4.0926527E-2,2.5096764E1,9.759572E2,5.5393007E-2,-4.6689983E-2,8.355978E-3,-6.3819E-3,-6.755443E-2,-8.641596E-3,5.384277E-2,-5.646641E-2,8.388987E-2,5.5307164E-3,5.051555E-3,7.345464E-2],"split_indices":[14,22,13,24,9,22,0,6,0,0,22,0,0,22,19,0,0,0,34,0,0,0,0,0,30,0,0],"split_type":[0,0,0,0,0,0,0,0,0,0,0,0,0,0,0,0,0,0,0,0,0,0,0,0,0,0,0],"sum_hessian":[6.1166447E1,4.0800262E1,2.0366184E1,1.369764E1,2.7102621E1,3.4821754E0,1.6884008E1,1.1209089E1,2.4885519E0,4.4797406E0,2.262288E1,1.7423483E0,1.7398272E0,7.222535E0,3.9865537E0,2.735205E0,1.7445359E0,1.2426064E0,2.1380274E1,5.9770327E0,1.2455025E0,2.4925094E0,1.4940445E0,1.4907389E1,6.472885E0,2.74367E0,3.7292151E0],"tree_param":{"num_deleted":"0","num_feature":"37","num_nodes":"27","size_leaf_vector":"1"}},{"base_weights":[9.888139E-2,6.899045E-1,-8.105714E-2,-3.3976063E-1,1.1360149E0,-1.0387964E0,5.3719115E-1,1.1520711E-1,1.2623276E0,-6.837215E-2,-3.2686296E-1,6.7912996E-2,-6.0680907E-2,5.2008983E-2,-6.0756933E-2,1.3359152E0,-1.3901688E-2,3.822728E-2,-6.024463E-2,-1.2549791E-2,1.4139699E0,7.322426E-2,7.876539E-3],"categories":[],"categories_nodes":[],"categories_segments":[],"categories_sizes":[],"default_left":[0,0,0,0,0,0,0,0,0,0,0,0,0,0,0,0,0,0,0,0,0,0,0],"id":3,"left_children":[1,3,-1,5,7,9,11,13,15,-1,17,-1,-1,-1,-1,19,-1,-1,-1,-1,21,-1,-1],"loss_changes":[6.847019E1,2.337158E1,0E0,1.0300453E1,4.3715706E0,1.6853714E0,1.271649E1,7.3882194E0,3.914051E0,0E0,4.974303E0,0E0,0E0,0E0,0E0,4.072323E0,0E0,0E0,0E0,0E0,1.5728683E0,0E0,0E0],"parents":[2147483647,0,0,1,1,3,3,4,4,5,5,6,6,7,7,8,8,10,10,15,15,20,20],"right_children":[2,4,-1,6,8,10,12,14,16,-1,18,-1,-1,-1,-1,20,-1,-1,-1,-1,22,-1,-1],"split_conditions":[2.4206735E2,2.6828333E1,-8.105714E-2,2.2468994E4,-6.214597E-3,6.336393E3,9.81653E2,-1.8857126E-1,2.9437616E2,-6.837215E-2,1.3562073E4,6.7912996E-2,-6.0680907E-2,5.2008983E-2,-6.0756933E-2,5.3424807E0,-1.3901688E-2,3.822728E-2,-6.024463E-2,-1.2549791E-2,1.2058914E2,7.322426E-2,7.876539E-3],"split_indices":[14,22,0,5,26,5,19,35,1,0,5,0,0,0,0,24,0,0,0,0,14,0,0],"split_type":[0,0,0,0,0,0,0,0,0,0,0,0,0,0,0,0,0,0,0,0,0,0,0],"sum_hessian":[6.526283E1,4.9022697E1,1.6240137E1,1.4884301E1,3.4138397E1,8.185959E0,6.6983423E0,3.9783347E0,3.016006E1,4.961029E0,3.22493E0,4.7164245E0,1.9819175E0,2.479795E0,1.4985396E0,2.891779E1,1.2422714E0,1.4903073E0,1.7346227E0,1.2458074E0,2.7671982E1,2.6435593E1,1.2363887E0],"tree_param":{"num_deleted":"0","num_feature":"37","num_nodes":"23","size_leaf_vector":"1"}},{"base_weights":[6.7707576E-2,6.2705755E-1,-8.0793135E-2,-2.0031391E-1,1.0363064E0,-1.1241671E0,3.5472184E-1,-3.275154E-2,1.1198446E0,-6.562268E-2,-6.8169194E-3,8.484165E-1,-6.1591025E-2,1.2077256E0,-3.1684373E-2,1.1383464E0,-3.0783761E-2,2.1473342E-1,1.3305745E0,6.1554373E-3,6.47532E-2,5.0439645E-2,-5.5037063E-2,1.5942303E-2,7.019939E-2],"categories":[],"categories_nodes":[],"categories_segments":[],"categories_sizes":[],"default_left":[0,0,0,0,0,0,0,0,0,0,0,0,0,0,0,0,0,0,0,0,0,0,0,0,0],"id":4,"left_children":[1,3,-1,5,7,9,11,-1,13,-1,-1,15,-1,17,-1,19,-1,21,23,-1,-1,-1,-1,-1,-1],"loss_changes":[6.4324974E1,1.7551416E1,0E0,9.52008E0,5.602009E0,1.0931053E0,1.0327862E1,0E0,5.8839493E0,0E0,0E0,4.797849E0,0E0,3.5956955E0,0E0,1.163311E0,0E0,6.0381355E0,1.631607E0,0E0,0E0,0E0,0E0,0E0,0E0],"parents":[2147483647,0,0,1,1,3,3,4,4,5,5,6,6,8,8,11,11,13,13,15,15,17,17,18,18],"right_children":[2,4,-1,6,8,10,12,-1,14,-1,-1,16,-1,18,-1,20,-1,22,24,-1,-1,-1,-1,-1,-1],"split_conditions":[3.12664E2,4.4025387E1,-8.0793135E-2,9.664796E3,4.809194E0,1.9336445E-2,9.974033E2,-3.275154E-2,5.4366646E3,-6.562268E-2,-6.8169194E-3,2.746759E3,-6.1591025E-2,-6.214597E-3,-3.1684373E-2,1.4697637E-1,-3.0783761E-2,-1.8578725E-1,2.7504172E-3,6.1554373E-3,6.47532E-2,5.0439645E-2,-5.5037063E-2,1.5942303E-2,7.019939E-2],"split_indices":[14,21,0,4,24,30,19,0,8,0,0,10,0,26,0,25,0,35,10,0,0,0,0,0,0],"split_type":[0,0,0,0,0,0,0,0,0,0,0,0,0,0,0,0,0,0,0,0,0,0,0,0,0],"sum_hessian":[6.624146E1,5.019736E1,1.6044104E1,1.6773254E1,3.3424107E1,5.9170265E0,1.0856228E1,1.2455503E0,3.2178555E1,4.6852417E0,1.2317848E0,8.639396E0,2.2168322E0,3.0944677E1,1.2338781E0,7.4027667E0,1.2366292E0,3.7183602E0,2.7226316E1,1.2372226E0,6.165544E0,2.4688344E0,1.2495258E0,2.2126472E0,2.501367E1],"tree_param":{"num_deleted":"0","num_feature":"37","num_nodes":"25","size_leaf_vector":"1"}},{"base_weights":[1.8908343E-3,3.6510816E-1,-1.1767019E0,-6.44791E-1,7.694183E-1,1.8058285E-3,-1.3468144E0,6.476603E-1,-1.0044657E0,-3.1299827E-1,9.608307E-1,-1.4468658E0,-7.864903E-3,-1.134557E-2,5.6550562E-2,-1.207415E0,8.094179E-3,-7.933558E-1,4.7158737E-2,-1.3970076E-1,1.1090465E0,-3.0493414E-2,-7.79009E-2,-1.2671903E-2,-1.3299682E0,-5.66395E-2,1.7623174E-3,3.177015E-2,-5.469225E-2,7.643891E-2,1.2127006E0,-2.5839755E-2,-7.3704846E-2,4.67456E-2,-3.623388E-2,7.18512E-2,3.576763E-2],"categories":[],"categories_nodes":[],"categories_segments":[],"categories_sizes":[],"default_left":[0,0,0,0,0,0,0,0,0,0,0,0,0,0,0,0,0,0,0,0,0,0,0,0,0,0,0,0,0,0,0,0,0,0,0,0,0],"id":5,"left_children":[1,3,5,7,9,-1,11,13,15,17,19,21,-1,-1,-1,23,-1,25,-1,27,29,-1,-1,-1,31,-1,-1,-1,-1,33,35,-1,-1,-1,-1,-1,-1],"loss_changes":[2.9028616E1,2.166946E1,3.3572311E0,7.7949724E0,8.075001E0,0E0,1.4274921E0,1.9338102E0,3.1446886E0,4.5966086E0,5.4025097E0,2.2105598E-1,0E0,0E0,0E0,8.9812946E-1,0E0,1.5033469E0,0E0,4.1692424E0,2.936306E0,0E0,0E0,0E0,3.0095482E-1,0E0,0E0,0E0,0E0,3.2026744E0,1.8234825E0,0E0,0E0,0E0,0E0,0E0,0E0],"parents":[2147483647,0,0,1,1,2,2,3,3,4,4,6,6,7,7,8,8,9,9,10,10,11,11,15,15,17,17,19,19,20,20,24,24,29,29,30,30],"right_children":[2,4,6,8,10,-1,12,14,16,18,20,22,-1,-1,-1,24,-1,26,-1,28,30,-1,-1,-1,32,-1,-1,-1,-1,34,36,-1,-1,-1,-1,-1,-1],"split_conditions":[2.3112659E3,4.181002E1,2.6342848E1,9.4712726E2,6.5476775E0,1.8058285E-3,3.0505947E4,9.428436E2,4.4033493E2,3.1424987E-1,-5.712584E-3,3.3583428E3,-7.864903E-3,-1.134557E-2,5.6550562E-2,8.369284E1,8.094179E-3,3.563913E2,4.7158737E-2,-1.8578725E-1,1.9039133E0,-3.0493414E-2,-7.79009E-2,-1.2671903E-2,-2.3622681E-1,-5.66395E-2,1.7623174E-3,3.177015E-2,-5.469225E-2,2.8442017E1,4.087668E-2,-2.5839755E-2,-7.3704846E-2,4.67456E-2,-3.623388E-2,7.18512E-2,3.576763E-2],"split_indices":[10,21,3,19,24,0,6,19,7,33,26,9,0,0,0,7,0,0,0,35,20,0,0,0,35,0,0,0,0,3,36,0,0,0,0,0,0],"split_type":[0,0,0,0,0,0,0,0,0,0,0,0,0,0,0,0,0,0,0,0,0,0,0,0,0,0,0,0,0,0,0,0,0,0,0,0,0],"sum_hessian":[6.5825714E1,5.0852695E1,1.49730215E1,1.4361226E1,3.649147E1,1.9314718E0,1.3041549E1,2.946134E0,1.14150915E1,5.380106E0,3.1111362E1,1.18224E1,1.2191495E0,1.2301557E0,1.7159784E0,9.700528E0,1.7145638E0,4.1641426E0,1.2159634E0,3.6914673E0,2.7419895E1,2.1569443E0,9.665456E0,1.4628683E0,8.237659E0,2.7021677E0,1.4619749E0,2.2153754E0,1.476092E0,2.6686447E0,2.4751251E1,1.9410876E0,6.2965717E0,1.2136133E0,1.4550315E0,1.5741665E1,9.009586E0],"tree_param":{"num_deleted":"0","num_feature":"37","num_nodes":"37","size_leaf_vector":"1"}},{"base_weights":[6.91549E-2,6.3034976E-1,-1.4464651E0,-3.685079E-1,1.1260974E0,-5.1395143E-3,-7.7040516E-2,-1.0220616E0,5.0226355E-1,1.4434965E0,7.8486335E-1,-1.2196239E0,8.940595E-3,6.340909E-2,-5.6515586E-2,2.9314745E-2,7.716934E-2,-1.9297995E-1,1.3075004E0,-6.960102E-2,-5.99469E-3,6.311624E-1,-7.841943E-1,-1.3762973E-3,7.558706E-2,2.8125383E-3,4.5831274E-2,1.3092011E-2,-6.967362E-2],"categories":[],"categories_nodes":[],"categories_segments":[],"categories_sizes":[],"default_left":[0,0,0,0,0,0,0,0,0,0,0,0,0,0,0,0,0,0,0,0,0,0,0,0,0,0,0,0,0],"id":6,"left_children":[1,3,5,7,9,-1,-1,11,13,15,17,19,-1,-1,-1,-1,-1,21,23,-1,-1,25,27,-1,-1,-1,-1,-1,-1],"loss_changes":[5.4030277E1,2.3341572E1,2.002678E0,9.680296E0,2.2223701E0,0E0,0E0,2.4900532E0,1.0895852E1,3.5394096E-1,9.071649E0,1.3955278E0,0E0,0E0,0E0,0E0,0E0,3.8428707E0,3.1559258E0,0E0,0E0,4.993055E-1,3.2136414E0,0E0,0E0,0E0,0E0,0E0,0E0],"parents":[2147483647,0,0,1,1,2,2,3,3,4,4,7,7,8,8,9,9,10,10,11,11,17,17,18,18,21,21,22,22],"right_children":[2,4,6,8,10,-1,-1,12,14,16,18,20,-1,-1,-1,-1,-1,22,24,-1,-1,26,28,-1,-1,-1,-1,-1,-1],"split_conditions":[2.177719E2,2.7522465E1,7.0023773E2,2.2952506E4,8.1679034E2,-5.1395143E-3,-7.7040516E-2,3.7645555E-1,1.0066633E3,2.9033129E1,4.0696432E2,1.02296783E3,8.940595E-3,6.340909E-2,-5.6515586E-2,2.9314745E-2,7.716934E-2,2.9255417E-3,-6.214597E-3,-6.960102E-2,-5.99469E-3,3.2968253E-1,3.696823E-2,-1.3762973E-3,7.558706E-2,2.8125383E-3,4.5831274E-2,1.3092011E-2,-6.967362E-2],"split_indices":[14,22,9,4,12,0,0,33,17,22,11,18,0,0,0,0,0,26,26,0,0,33,28,0,0,0,0,0,0],"split_type":[0,0,0,0,0,0,0,0,0,0,0,0,0,0,0,0,0,0,0,0,0,0,0,0,0,0,0,0,0],"sum_hessian":[6.146094E1,4.5284103E1,1.6176836E1,1.5098788E1,3.0185316E1,1.2053666E0,1.4971469E1,8.532499E0,6.566289E0,1.3950095E1,1.623522E1,7.320823E0,1.2116759E0,4.625551E0,1.9407377E0,2.183348E0,1.1766747E1,5.867977E0,1.0367244E1,6.091091E0,1.229732E0,2.4158463E0,3.452131E0,1.4839067E0,8.883337E0,1.2103431E0,1.2055032E0,1.4744921E0,1.9776388E0],"tree_param":{"num_deleted":"0","num_feature":"37","num_nodes":"29","size_leaf_vector":"1"}},{"base_weights":[-7.283304E-2,5.6328624E-1,-7.5705975E-2,-3.7788174E-1,9.6862674E-1,5.079876E-1,-9.562768E-1,1.0507376E0,-1.4742809E-2,-4.8703186E-2,5.737069E-2,-6.3561186E-2,-2.810015E-1,1.129488E0,-2.546299E-3,2.4241181E-2,-5.0653215E-2,2.2671086E-1,1.2428492E0,-3.466954E-2,4.0679842E-2,6.6028334E-2,1.50394095E-2],"categories":[],"categories_nodes":[],"categories_segments":[],"categories_sizes":[],"default_left":[0,0,0,0,0,0,0,0,0,0,0,0,0,0,0,0,0,0,0,0,0,0,0],"id":7,"left_children":[1,3,-1,5,7,9,11,13,-1,-1,-1,-1,15,17,-1,-1,-1,19,21,-1,-1,-1,-1],"loss_changes":[5.959571E1,1.7603693E1,0E0,7.822072E0,3.6227074E0,7.088245E0,1.5436306E0,2.6833496E0,0E0,0E0,0E0,0E0,2.82856E0,2.5877876E0,0E0,0E0,0E0,2.9289412E0,1.4027328E0,0E0,0E0,0E0,0E0],"parents":[2147483647,0,0,1,1,3,3,4,4,5,5,6,6,7,7,12,12,13,13,17,17,18,18],"right_children":[2,4,-1,6,8,10,12,14,-1,-1,-1,-1,16,18,-1,-1,-1,20,22,-1,-1,-1,-1],"split_conditions":[2.177719E2,2.6828333E1,-7.5705975E-2,6.172089E-1,8.96605E0,5.5707285E3,4.371812E-2,2.6375151E3,-1.4742809E-2,-4.8703186E-2,5.737069E-2,-6.3561186E-2,6.593832E-2,5.85805E-3,-2.546299E-3,2.4241181E-2,-5.0653215E-2,2.1345718E-1,8.727193E1,-3.466954E-2,4.0679842E-2,6.6028334E-2,1.50394095E-2],"split_indices":[14,22,0,10,23,6,32,10,0,0,0,0,28,10,0,0,0,33,14,0,0,0,0],"split_type":[0,0,0,0,0,0,0,0,0,0,0,0,0,0,0,0,0,0,0,0,0,0,0],"sum_hessian":[6.3061287E1,4.4169212E1,1.8892073E1,1.33092575E1,3.0859957E1,5.2985077E0,8.01075E0,2.9142355E1,1.717602E0,1.4345504E0,3.8639572E0,4.8509445E0,3.159805E0,2.7183048E1,1.9593068E0,1.702674E0,1.457131E0,3.3770769E0,2.3805971E1,1.2378696E0,2.1392071E0,2.1610744E1,2.195226E0],"tree_param":{"num_deleted":"0","num_feature":"37","num_nodes":"23","size_leaf_vector":"1"}},{"base_weights":[-3.8844507E-2,5.32825E-1,-1.4174899E0,7.618661E-1,-6.1280847E-2,-7.298587E-2,-2.115851E-2,8.8619167E-1,-5.738328E-2,1.4110899E-1,1.0657687E0,8.912911E-1,-9.888818E-1,-2.4009976E-1,1.1985266E0,3.0626743E-3,6.0776122E-2,-6.289677E-2,-9.733724E-3,2.9304912E-2,-5.178213E-2,-1.2165557E-2,6.369211E-2],"categories":[],"categories_nodes":[],"categories_segments":[],"categories_sizes":[],"default_left":[0,0,0,0,0,0,0,0,0,0,0,0,0,0,0,0,0,0,0,0,0,0,0],"id":8,"left_children":[1,3,5,7,-1,-1,-1,9,-1,11,13,15,17,19,21,-1,-1,-1,-1,-1,-1,-1,-1],"loss_changes":[5.0058575E1,1.9026737E1,1.4492035E-1,1.0600292E1,0E0,0E0,0E0,4.986004E0,0E0,8.201432E0,5.6443405E0,1.4526386E0,5.7707477E-1,3.0252194E0,3.3793144E0,0E0,0E0,0E0,0E0,0E0,0E0,0E0,0E0],"parents":[2147483647,0,0,1,1,2,2,3,3,7,7,9,9,10,10,11,11,12,12,13,13,14,14],"right_children":[2,4,6,8,-1,-1,-1,10,-1,12,14,16,18,20,22,-1,-1,-1,-1,-1,-1,-1,-1],"split_conditions":[2.177719E2,5.321755E3,1.3172633E2,7E0,-6.1280847E-2,-7.298587E-2,-2.115851E-2,8.492992E3,-5.738328E-2,3.9525576E-2,1.3125153E-1,4.689864E-3,5.1598977E-2,1.8120161E2,4.2998414E0,3.0626743E-3,6.0776122E-2,-6.289677E-2,-9.733724E-3,2.9304912E-2,-5.178213E-2,-1.2165557E-2,6.369211E-2],"split_indices":[14,8,3,16,0,0,0,4,0,36,29,26,36,1,24,0,0,0,0,0,0,0,0],"split_type":[0,0,0,0,0,0,0,0,0,0,0,0,0,0,0,0,0,0,0,0,0,0,0],"sum_hessian":[6.154614E1,4.3934505E1,1.7611631E1,3.9377872E1,4.5566335E0,1.6435524E1,1.1761088E0,3.747885E1,1.8990204E0,7.636352E0,2.9842499E1,4.7217503E0,2.9146016E0,2.6723318E0,2.7170168E1,1.668956E0,3.0527945E0,1.7315317E0,1.1830698E0,1.4338907E0,1.2384411E0,1.2314752E0,2.5938692E1],"tree_param":{"num_deleted":"0","num_feature":"37","num_nodes":"23","size_leaf_vector":"1"}},{"base_weights":[-3.6219005E-2,4.529537E-1,-1.0402442E0,6.744211E-1,-5.904534E-2,-6.53583E-2,2.90644E-1,8.21277E-1,-5.639496E-2,-2.4179265E-2,4.8992254E-2,1.0724301E0,1.2514952E-2,2.9797113E-1,1.3028542E0,-8.813429E-1,6.363783E-1,5.4514296E-2,-4.2528927E-2,9.1952095E-3,6.8667896E-2,2.1477283E-3,-6.2402915E-2,-2.9849587E-2,5.28001E-2],"categories":[],"categories_nodes":[],"categories_segments":[],"categories_sizes":[],"default_left":[0,0,0,0,0,0,0,0,0,0,0,0,0,0,0,0,0,0,0,0,0,0,0,0,0],"id":9,"left_children":[1,3,5,7,-1,-1,9,11,-1,-1,-1,13,15,17,19,21,23,-1,-1,-1,-1,-1,-1,-1,-1],"loss_changes":[3.141146E1,1.6365543E1,7.8302517E0,1.1125393E1,0E0,0E0,2.7789438E0,7.3338013E0,0E0,0E0,0E0,4.524639E0,5.914541E0,7.8821025E0,1.3869781E0,1.5437813E0,3.8666399E0,0E0,0E0,0E0,0E0,0E0,0E0,0E0,0E0],"parents":[2147483647,0,0,1,1,2,2,3,3,6,6,7,7,11,11,12,12,13,13,14,14,15,15,16,16],"right_children":[2,4,6,8,-1,-1,10,12,-1,-1,-1,14,16,18,20,22,24,-1,-1,-1,-1,-1,-1,-1,-1],"split_conditions":[1.2067716E3,3.338326E3,5.566588E2,7E0,-5.904534E-2,-6.53583E-2,6.6216223E2,-1.5780164E-1,-5.639496E-2,-2.4179265E-2,4.8992254E-2,8.29671E3,1.5893709E1,3.9525576E-2,2.0655881E-1,2.746457E2,-1.3025637E-1,5.4514296E-2,-4.2528927E-2,9.1952095E-3,6.8667896E-2,2.1477283E-3,-6.2402915E-2,-2.9849587E-2,5.28001E-2],"split_indices":[13,10,15,16,0,0,11,35,0,0,0,4,2,36,2,13,35,0,0,0,0,0,0,0,0],"split_type":[0,0,0,0,0,0,0,0,0,0,0,0,0,0,0,0,0,0,0,0,0,0,0,0,0],"sum_hessian":[6.198468E1,4.2040813E1,1.9943869E1,3.7544987E1,4.495825E0,1.6633253E1,3.3106153E0,3.5224693E1,2.3202932E0,1.6928003E0,1.617815E0,2.6619799E1,8.604896E0,6.639816E0,1.9979984E1,3.3608277E0,5.2440677E0,3.9644306E0,2.6753852E0,1.4065872E0,1.8573397E1,1.1976862E0,2.1631415E0,1.2178913E0,4.0261765E0],"tree_param":{"num_deleted":"0","num_feature":"37","num_nodes":"25","size_leaf_vector":"1"}},{"base_weights":[1.3113077E-2,4.9667066E-1,-6.9493644E-2,-3.935087E-1,8.957707E-1,5.9251815E-1,-9.358799E-1,-2.9645527E-2,9.713283E-1,-4.1396465E-2,5.4445464E-2,-6.756336E-2,-3.158067E-1,3.356487E-2,1.0983865E0,2.1272521E-2,-4.541966E-2,4.455089E-2,-5.7065703E-2,6.956353E-2,1.219551E0,3.3592407E-2,-3.5832133E-2,6.305889E-2,1.0453524E-2],"categories":[],"categories_nodes":[],"categories_segments":[],"categories_sizes":[],"default_left":[0,0,0,0,0,0,0,0,0,0,0,0,0,0,0,0,0,0,0,0,0,0,0,0,0],"id":10,"left_children":[1,3,-1,5,7,9,11,-1,13,-1,-1,-1,15,17,19,-1,-1,-1,-1,21,23,-1,-1,-1,-1],"loss_changes":[4.3756264E1,1.7396366E1,0E0,8.865021E0,4.3395977E0,5.2179003E0,2.2392635E0,0E0,3.7881927E0,0E0,0E0,0E0,2.804097E0,5.933437E0,3.4319153E0,0E0,0E0,0E0,0E0,2.3999612E0,7.842369E-1,0E0,0E0,0E0,0E0],"parents":[2147483647,0,0,1,1,3,3,4,4,5,5,6,6,8,8,12,12,13,13,14,14,19,19,20,20],"right_children":[2,4,-1,6,8,10,12,-1,14,-1,-1,-1,16,18,20,-1,-1,-1,-1,22,24,-1,-1,-1,-1],"split_conditions":[3.12664E2,2.6828333E1,-6.9493644E-2,6.172089E-1,4.809194E0,6.5692954E3,3.372476E-2,-2.9645527E-2,-6.214597E-3,-4.1396465E-2,5.4445464E-2,-6.756336E-2,8.487418E2,-1.8578725E-1,9.992152E-3,2.1272521E-2,-4.541966E-2,4.455089E-2,-5.7065703E-2,-7.055083E-3,5.05939E3,3.3592407E-2,-3.5832133E-2,6.305889E-2,1.0453524E-2],"split_indices":[14,22,0,10,24,4,36,0,26,0,0,0,12,35,10,0,0,0,0,30,8,0,0,0,0],"split_type":[0,0,0,0,0,0,0,0,0,0,0,0,0,0,0,0,0,0,0,0,0,0,0,0,0],"sum_hessian":[6.2492527E1,4.6960194E1,1.5532331E1,1.453324E1,3.2426952E1,5.117949E0,9.415291E0,1.2291918E0,3.1197762E1,1.1471838E0,3.9707654E0,4.9224234E0,4.4928675E0,3.8828597E0,2.7314901E1,2.1138525E0,2.3790147E0,2.3892512E0,1.4936085E0,3.0524895E0,2.4262413E1,1.817977E0,1.2345127E0,2.3054682E1,1.2077312E0],"tree_param":{"num_deleted":"0","num_feature":"37","num_nodes":"25","size_leaf_vector":"1"}},{"base_weights":[-7.621002E-3,4.5413738E-1,-6.768461E-2,6.1743313E-1,-6.0863163E-2,7.4643254E-1,-4.7627542E-2,-3.218207E-2,8.470513E-1,-1.6950972E-2,9.2325115E-1,5.23906E-2,3.556689E-3],"categories":[],"categories_nodes":[],"categories_segments":[],"categories_sizes":[],"default_left":[0,0,0,0,0,0,0,0,0,0,0,0,0],"id":11,"left_children":[1,3,-1,5,-1,7,-1,-1,9,-1,11,-1,-1],"loss_changes":[3.67262E1,1.2752185E1,0E0,8.960838E0,0E0,5.892622E0,0E0,0E0,3.5793686E0,0E0,3.5416317E0,0E0,0E0],"parents":[2147483647,0,0,1,1,3,3,5,5,8,8,10,10],"right_children":[2,4,-1,6,-1,8,-1,-1,10,-1,12,-1,-1],"split_conditions":[3.12664E2,5.8226055E3,-6.768461E-2,7E0,-6.0863163E-2,4.605775E0,-4.7627542E-2,-3.218207E-2,1.1070419E-1,-1.6950972E-2,-1.3066274E-1,5.23906E-2,3.556689E-3],"split_indices":[14,8,0,16,0,24,0,0,25,0,27,0,0],"split_type":[0,0,0,0,0,0,0,0,0,0,0,0,0],"sum_hessian":[5.7083626E1,4.299109E1,1.4092538E1,3.9744614E1,3.246475E0,3.7217525E1,2.5270877E0,2.1411247E0,3.50764E1,1.9013314E0,3.3175068E1,2.8733475E1,4.441595E0],"tree_param":{"num_deleted":"0","num_feature":"37","num_nodes":"13","size_leaf_vector":"1"}},{"base_weights":[-2.4032235E-2,4.138292E-1,-6.647298E-2,5.891142E-1,-6.093451E-2,9.0470004E-1,-9.555358E-2,-2.0525169E-2,1.1934241E0,-6.216062E-2,2.5480166E-1,-9.289038E-1,5.541268E-2,1.2587397E0,1.2560708E-3,5.081128E-2,-2.024246E-1,-5.484444E-2,-1.06681995E-2,6.8930894E-2,2.0472465E-2,-2.434428E-2,4.012486E-2],"categories":[],"categories_nodes":[],"categories_segments":[],"categories_sizes":[],"default_left":[0,0,0,0,0,0,0,0,0,0,0,0,0,0,0,0,0,0,0,0,0,0,0],"id":12,"left_children":[1,3,-1,5,-1,7,9,11,13,-1,15,17,-1,19,-1,-1,21,-1,-1,-1,-1,-1,-1],"loss_changes":[3.4013138E1,1.346954E1,0E0,8.940607E0,0E0,7.5504684E0,5.8800716E0,8.887069E0,1.5934258E0,0E0,4.184226E0,3.2935E-1,0E0,1.4843254E0,0E0,0E0,2.6605334E0,0E0,0E0,0E0,0E0,0E0,0E0],"parents":[2147483647,0,0,1,1,3,3,5,5,6,6,7,7,8,8,10,10,11,11,13,13,16,16],"right_children":[2,4,-1,6,-1,8,10,12,14,-1,16,18,-1,20,-1,-1,22,-1,-1,-1,-1,-1,-1],"split_conditions":[2.4206735E2,5.8226055E3,-6.647298E-2,-1.7708378E-1,-6.093451E-2,8.492992E3,-6.503023E-3,9.9315283E2,7.467192E0,-6.216062E-2,5.831734E-3,4.0696432E2,5.541268E-2,-1.7123082E-1,1.2560708E-3,5.081128E-2,8.773655E0,-5.484444E-2,-1.06681995E-2,6.8930894E-2,2.0472465E-2,-2.434428E-2,4.012486E-2],"split_indices":[14,8,0,35,0,4,26,17,23,0,26,11,0,27,0,0,20,0,0,0,0,0,0],"split_type":[0,0,0,0,0,0,0,0,0,0,0,0,0,0,0,0,0,0,0,0,0,0,0],"sum_hessian":[5.752699E1,4.3583656E1,1.3943331E1,3.994048E1,3.6431794E0,2.7129045E1,1.2811433E1,6.665027E0,2.0464018E1,2.4069839E0,1.04044485E1,3.796082E0,2.8689454E0,1.9299105E1,1.1649132E0,3.453155E0,6.951294E0,2.6313903E0,1.1646916E0,1.635548E1,2.943625E0,5.82724E0,1.1240538E0],"tree_param":{"num_deleted":"0","num_feature":"37","num_nodes":"23","size_leaf_vector":"1"}},{"base_weights":[-5.1393777E-2,4.0666386E-1,-1.2242489E0,5.76389E-1,-5.9061695E-2,-6.1504166E-3,-6.565545E-2,8.273712E-2,1.0426321E0,-8.886587E-1,4.8606348E-1,5.5350626E-1,6.766179E-2,-6.050503E-2,1.2797572E-2,7.9866076E-1,-3.9154255E-1,-3.207934E-2,9.9425405E-1,5.621785E-2,2.1343294E-3,-5.5284943E-2,1.5467864E-2,5.9248496E-2,1.5526824E-2],"categories":[],"categories_nodes":[],"categories_segments":[],"categories_sizes":[],"default_left":[0,0,0,0,0,0,0,0,0,0,0,0,0,0,0,0,0,0,0,0,0,0,0,0,0],"id":13,"left_children":[1,3,5,7,-1,-1,-1,9,11,13,15,17,-1,-1,-1,19,21,-1,23,-1,-1,-1,-1,-1,-1],"loss_changes":[3.1319464E1,1.1991697E1,1.4254704E0,8.789968E0,0E0,0E0,0E0,8.205866E0,2.2341938E0,2.5896397E0,4.3444977E0,5.582091E0,0E0,0E0,0E0,2.6888628E0,2.6118321E0,0E0,5.6255484E-1,0E0,0E0,0E0,0E0,0E0,0E0],"parents":[2147483647,0,0,1,1,2,2,3,3,7,7,8,8,9,9,10,10,11,11,15,15,16,16,18,18],"right_children":[2,4,6,8,-1,-1,-1,10,12,14,16,18,-1,-1,-1,20,22,-1,24,-1,-1,-1,-1,-1,-1],"split_conditions":[1.9290675E2,5.0864575E3,7.0023773E2,4.835924E1,-5.9061695E-2,-6.1504166E-3,-6.565545E-2,8.492992E3,9.830361E2,1.4584471E3,3.7503754E2,2.1345718E-1,6.766179E-2,-6.050503E-2,1.2797572E-2,3.5241406E2,6.5161853E0,-3.207934E-2,9.6800146E2,5.621785E-2,2.1343294E-3,-5.5284943E-2,1.5467864E-2,5.9248496E-2,1.5526824E-2],"split_indices":[14,9,9,21,0,0,0,4,9,9,7,33,0,0,0,0,24,0,18,0,0,0,0,0,0],"split_type":[0,0,0,0,0,0,0,0,0,0,0,0,0,0,0,0,0,0,0,0,0,0,0,0,0],"sum_hessian":[5.6355564E1,4.099122E1,1.5364345E1,3.7614082E1,3.3771365E0,1.333622E0,1.4030723E1,1.885236E1,1.8761723E1,5.170733E0,1.3681626E1,8.379798E0,1.0381926E1,3.9991646E0,1.1715686E0,1.016299E1,3.5186372E0,2.128898E0,6.2509E0,6.7530503E0,3.4099393E0,1.4638381E0,2.054799E0,4.302898E0,1.9480019E0],"tree_param":{"num_deleted":"0","num_feature":"37","num_nodes":"25","size_leaf_vector":"1"}},{"base_weights":[-1.819341E-2,4.4121274E-1,-6.3699E-2,5.625729E-1,-5.3046703E-2,6.5432566E-1,-3.792194E-2,1.0472914E0,3.144664E-1,-1.0371682E-2,1.2415885E0,-5.574667E-1,6.1178553E-1,2.8153036E-2,-3.167516E-2,1.0833937E-2,6.5243706E-2,1.2042135E-2,-5.302259E-2,3.9392434E-2,-2.3472322E-2],"categories":[],"categories_nodes":[],"categories_segments":[],"categories_sizes":[],"default_left":[0,0,0,0,0,0,0,0,0,0,0,0,0,0,0,0,0,0,0,0,0],"id":14,"left_children":[1,3,-1,5,-1,7,-1,9,11,13,15,17,19,-1,-1,-1,-1,-1,-1,-1,-1],"loss_changes":[3.247756E1,8.108086E0,0E0,5.1989355E0,0E0,4.5759296E0,0E0,3.4443512E0,5.835658E0,1.6315784E0,6.148033E-1,2.6341176E0,3.473925E0,0E0,0E0,0E0,0E0,0E0,0E0,0E0,0E0],"parents":[2147483647,0,0,1,1,3,3,5,5,7,7,8,8,9,9,10,10,11,11,12,12],"right_children":[2,4,-1,6,-1,8,-1,10,12,14,16,18,20,-1,-1,-1,-1,-1,-1,-1,-1],"split_conditions":[3.12664E2,5.8226055E3,-6.3699E-2,7E0,-5.3046703E-2,8.487418E2,-3.792194E-2,1.3496733E-1,4.2075086E0,1.1732405E-1,2E0,9.4407245E2,6.495115E-2,2.8153036E-2,-3.167516E-2,1.0833937E-2,6.5243706E-2,1.2042135E-2,-5.302259E-2,3.9392434E-2,-2.3472322E-2],"split_indices":[14,8,0,16,0,12,0,29,20,29,16,19,32,0,0,0,0,0,0,0,0],"split_type":[0,0,0,0,0,0,0,0,0,0,0,0,0,0,0,0,0,0,0,0,0],"sum_hessian":[5.4306374E1,4.022976E1,1.4076616E1,3.78074E1,2.422358E0,3.5830956E1,1.9764432E0,1.5638183E1,2.0192774E1,2.565879E0,1.3072304E1,4.9036045E0,1.5289169E1,1.3780718E0,1.1878073E0,1.026702E0,1.2045602E1,2.0891368E0,2.8144674E0,1.3389476E1,1.8996942E0],"tree_param":{"num_deleted":"0","num_feature":"37","num_nodes":"21","size_leaf_vector":"1"}},{"base_weights":[-3.2859328E-3,4.2942035E-1,-6.334949E-2,-4.0795022E-1,7.938219E-1,-9.570195E-1,3.1303725E-1,8.9242566E-1,2.76291E-3,-5.4610338E-2,-4.62879E-3,4.9299654E-2,-4.74169E-2,5.024459E-1,1.1525668E0,-3.4997985E-2,4.3811206E-2,8.114886E-1,-3.7504878E-2,2.2509565E-4,6.30827E-2,9.229944E-3,6.0609836E-2],"categories":[],"categories_nodes":[],"categories_segments":[],"categories_sizes":[],"default_left":[0,0,0,0,0,0,0,0,0,0,0,0,0,0,0,0,0,0,0,0,0,0,0],"id":15,"left_children":[1,3,-1,5,7,9,11,13,15,-1,-1,-1,-1,17,19,-1,-1,21,-1,-1,-1,-1,-1],"loss_changes":[3.06099E1,1.3048502E1,0E0,5.568361E0,2.2814732E0,7.986264E-1,6.4465685E0,2.0545387E0,3.2374449E0,0E0,0E0,0E0,0E0,5.347761E0,1.8454609E0,0E0,0E0,2.3509765E0,0E0,0E0,0E0,0E0,0E0],"parents":[2147483647,0,0,1,1,3,3,4,4,5,5,6,6,7,7,8,8,13,13,14,14,17,17],"right_children":[2,4,-1,6,8,10,12,14,16,-1,-1,-1,-1,18,20,-1,-1,22,-1,-1,-1,-1,-1],"split_conditions":[2.177719E2,2.6828333E1,-6.334949E-2,2.1979598E4,3.5869125E1,1.0350543E3,9.933794E2,2.5470877E-1,1.26531315E1,-5.4610338E-2,-4.62879E-3,4.9299654E-2,-4.74169E-2,9.8431E-3,7.4984094E2,-3.4997985E-2,4.3811206E-2,9.631518E2,-3.7504878E-2,2.2509565E-4,6.30827E-2,9.229944E-3,6.0609836E-2],"split_indices":[14,22,0,5,14,17,18,25,2,0,0,0,0,30,8,0,0,17,0,0,0,0,0],"split_type":[0,0,0,0,0,0,0,0,0,0,0,0,0,0,0,0,0,0,0,0,0,0,0],"sum_hessian":[5.3968464E1,4.0688534E1,1.3279931E1,1.2293026E1,2.8395508E1,6.8005505E0,5.4924755E0,2.5123178E1,3.2723305E0,5.643013E0,1.1575378E0,3.7291725E0,1.7633028E0,1.1241232E1,1.3881947E1,1.9171338E0,1.3551967E0,9.305401E0,1.9358305E0,1.3028909E0,1.2579056E1,4.207927E0,5.097474E0],"tree_param":{"num_deleted":"0","num_feature":"37","num_nodes":"23","size_leaf_vector":"1"}},{"base_weights":[-3.49507E-2,3.9834404E-1,-1.1852291E0,-4.1758993E-1,8.192421E-1,-1.3385474E-2,-6.1802495E-2,-6.5504116E-1,4.488763E-2,3.6833185E-1,1.035368E0,2.100513E-1,-1.0046649E0,4.947339E-2,-2.4771966E-1,1.1987476E0,3.2638052E-1,-3.8673803E-2,3.8909752E-2,-6.3878424E-2,-1.9922507E-1,-7.3323905E-1,4.0784486E-2,6.539354E-2,1.0458839E-2,4.804951E-2,-2.9430062E-2,1.8304454E-2,-3.7656624E-2,2.3650401E-3,-6.279768E-2],"categories":[],"categories_nodes":[],"categories_segments":[],"categories_sizes":[],"default_left":[0,0,0,0,0,0,0,0,0,0,0,0,0,0,0,0,0,0,0,0,0,0,0,0,0,0,0,0,0,0,0],"id":16,"left_children":[1,3,5,7,9,-1,-1,11,-1,13,15,17,19,-1,21,23,25,-1,-1,-1,27,29,-1,-1,-1,-1,-1,-1,-1,-1,-1],"loss_changes":[2.6374416E1,1.356134E1,3.2894516E-1,4.879977E0,2.1121979E0,0E0,0E0,3.918459E0,0E0,4.042444E0,1.542633E0,3.0267193E0,1.685256E0,0E0,3.5733688E0,1.146368E0,3.2037976E0,0E0,0E0,0E0,1.3581365E0,1.9036019E0,0E0,0E0,0E0,0E0,0E0,0E0,0E0,0E0,0E0],"parents":[2147483647,0,0,1,1,2,2,3,3,4,4,7,7,9,9,10,10,11,11,12,12,14,14,15,15,16,16,20,20,21,21],"right_children":[2,4,6,8,10,-1,-1,12,-1,14,16,18,20,-1,22,24,26,-1,-1,-1,28,30,-1,-1,-1,-1,-1,-1,-1,-1,-1],"split_conditions":[2.177719E2,2.6828333E1,1.2684657E3,1.0808577E1,8.9598545E3,-1.3385474E-2,-6.1802495E-2,6.172089E-1,4.488763E-2,9.1408026E2,9.440959E0,5.5707285E3,1.9706396E0,4.947339E-2,2.3352388E3,3.548007E1,1.7245441E4,-3.8673803E-2,3.8909752E-2,-6.3878424E-2,4.4823364E3,3.4672546E0,4.0784486E-2,6.539354E-2,1.0458839E-2,4.804951E-2,-2.9430062E-2,1.8304454E-2,-3.7656624E-2,2.3650401E-3,-6.279768E-2],"split_indices":[14,22,12,24,6,0,0,10,0,12,20,6,23,0,12,22,4,0,0,0,8,23,0,0,0,0,0,0,0,0,0],"split_type":[0,0,0,0,0,0,0,0,0,0,0,0,0,0,0,0,0,0,0,0,0,0,0,0,0,0,0,0,0,0,0],"sum_hessian":[5.09541E1,3.748064E1,1.3473461E1,1.2749376E1,2.4731262E1,1.046391E0,1.242707E1,1.1231432E1,1.5179439E0,8.904348E0,1.5826915E1,3.339338E0,7.892094E0,4.1401334E0,4.764215E0,1.2289922E1,3.536993E0,1.0839229E0,2.2554152E0,5.447688E0,2.444406E0,3.4904647E0,1.2737502E0,1.0770468E1,1.5194539E0,2.0652382E0,1.4717547E0,1.3686234E0,1.0757825E0,1.7570863E0,1.7333784E0],"tree_param":{"num_deleted":"0","num_feature":"37","num_nodes":"31","size_leaf_vector":"1"}},{"base_weights":[-4.322598E-2,6.2524766E-1,-3.9484328E-1,1.243544E-1,5.9026606E-2,9.892439E-3,-1.1251996E0,6.6888267E-1,-8.3116865E-1,-4.2603302E-1,7.035576E-1,-9.889162E-3,-6.0895044E-2,-1.6407086E-2,9.316117E-1,7.1175764E-3,-5.9225757E-2,5.812098E-1,-8.5261345E-1,9.306848E-1,-2.0654298E-2,5.7432003E-2,-3.7180614E-3,-6.4366483E-3,5.246044E-2,-9.852443E-1,-4.717726E-3,-1.6140167E-3,5.43943E-2,-1.141459E-2,-5.7084788E-2],"categories":[],"categories_nodes":[],"categories_segments":[],"categories_sizes":[],"default_left":[0,0,0,0,0,0,0,0,0,0,0,0,0,0,0,0,0,0,0,0,0,0,0,0,0,0,0,0,0,0,0],"id":17,"left_children":[1,3,5,7,-1,9,11,13,15,17,19,-1,-1,-1,21,-1,-1,23,25,27,-1,-1,-1,-1,-1,29,-1,-1,-1,-1,-1],"loss_changes":[1.2452966E1,4.924697E0,1.0267704E1,6.1415415E0,0E0,7.3431616E0,8.08959E-1,2.250395E0,1.6710246E0,6.905554E0,2.7664294E0,0E0,0E0,0E0,1.4335833E0,0E0,0E0,1.81358E0,9.9122334E-1,1.2722015E0,0E0,0E0,0E0,0E0,0E0,8.092432E-1,0E0,0E0,0E0,0E0,0E0],"parents":[2147483647,0,0,1,1,2,2,3,3,5,5,6,6,7,7,8,8,9,9,10,10,14,14,17,17,18,18,19,19,25,25],"right_children":[2,4,6,8,-1,10,12,14,16,18,20,-1,-1,-1,22,-1,-1,24,26,28,-1,-1,-1,-1,-1,30,-1,-1,-1,-1,-1],"split_conditions":[3.539329E2,2.3213315E0,1.2854306E-2,-2.3004565E-1,5.9026606E-2,4.3395523E2,5.39011E-1,6.5692954E3,3.3223843E2,6.3355817E2,6.1863696E2,-9.889162E-3,-6.0895044E-2,-1.6407086E-2,7.592258E0,7.1175764E-3,-5.9225757E-2,3.6007968E2,1.7887611E-2,-3.5833147E-1,-2.0654298E-2,5.7432003E-2,-3.7180614E-3,-6.4366483E-3,5.246044E-2,2.0892993E-2,-4.717726E-3,-1.6140167E-3,5.43943E-2,-1.141459E-2,-5.7084788E-2],"split_indices":[13,23,30,31,0,11,2,4,0,9,7,0,0,0,20,0,0,9,26,27,0,0,0,0,0,36,0,0,0,0,0],"split_type":[0,0,0,0,0,0,0,0,0,0,0,0,0,0,0,0,0,0,0,0,0,0,0,0,0,0,0,0,0,0,0],"sum_hessian":[5.094025E1,1.7280659E1,3.365959E1,9.738248E0,7.542411E0,2.228362E1,1.1375972E1,6.4009542E0,3.3372931E0,1.3912123E1,8.371497E0,1.328328E0,1.0047644E1,1.2750938E0,5.1258607E0,1.0402067E0,2.2970862E0,4.024213E0,9.88791E0,7.1023555E0,1.2691422E0,4.107772E0,1.0180888E0,1.8783559E0,2.145857E0,8.149841E0,1.7380682E0,1.0993181E0,6.0030375E0,1.8281043E0,6.321737E0],"tree_param":{"num_deleted":"0","num_feature":"37","num_nodes":"31","size_leaf_vector":"1"}},{"base_weights":[3.2213512E-3,3.667547E-1,-7.1507686E-1,-5.434868E-1,7.152211E-1,-1.0463914E0,6.7816025E-1,-7.656236E-1,3.732733E-2,2.3504868E-1,9.7054553E-1,-5.627746E-2,1.18041564E-4,-3.283218E-3,4.8125856E-2,-9.7409785E-1,7.117142E-3,7.152124E-1,-7.4678975E-1,4.337914E-2,1.1449406E0,-5.9720594E-2,-5.6096404E-3,-2.0947486E-2,9.7985137E-1,-6.0900953E-2,1.4262001E-2,3.7431244E-2,-2.8746068E-2,9.756866E-3,1.2012507E0,5.883596E-2,-0E0,6.303816E-2,1.2515462E-2],"categories":[],"categories_nodes":[],"categories_segments":[],"categories_sizes":[],"default_left":[0,0,0,0,0,0,0,0,0,0,0,0,0,0,0,0,0,0,0,0,0,0,0,0,0,0,0,0,0,0,0,0,0,0,0],"id":18,"left_children":[1,3,5,7,9,11,13,15,-1,17,19,-1,-1,-1,-1,21,-1,23,25,27,29,-1,-1,-1,31,-1,-1,-1,-1,-1,33,-1,-1,-1,-1],"loss_changes":[1.4243663E1,1.18820715E1,9.17283E0,3.606552E0,3.0258036E0,1.2761383E0,9.439782E-1,1.9518051E0,0E0,5.5221043E0,2.6966953E0,0E0,0E0,0E0,0E0,1.3513246E0,0E0,2.704257E0,2.2813497E0,2.0669446E0,5.169411E-1,0E0,0E0,0E0,1.2420969E0,0E0,0E0,0E0,0E0,0E0,4.2225647E-1,0E0,0E0,0E0,0E0],"parents":[2147483647,0,0,1,1,2,2,3,3,4,4,5,5,6,6,7,7,9,9,10,10,15,15,17,17,18,18,19,19,20,20,24,24,30,30],"right_children":[2,4,6,8,10,12,14,16,-1,18,20,-1,-1,-1,-1,22,-1,24,26,28,30,-1,-1,-1,32,-1,-1,-1,-1,-1,34,-1,-1,-1,-1],"split_conditions":[1.0798665E3,4.1380856E1,5.316562E2,1.075274E1,2.1345718E-1,3.595963E2,9.801665E2,2.526095E2,3.732733E-2,2.1495522E2,4.227393E3,-5.627746E-2,1.18041564E-4,-3.283218E-3,4.8125856E-2,3.5786584E2,7.117142E-3,6.665072E1,9.616329E2,-5.499992E-3,1.7430563E2,-5.9720594E-2,-5.6096404E-3,-2.0947486E-2,3.7197583E2,-6.0900953E-2,1.4262001E-2,3.7431244E-2,-2.8746068E-2,9.756866E-3,2.9437616E2,5.883596E-2,-0E0,6.303816E-2,1.2515462E-2],"split_indices":[13,21,15,24,33,0,17,1,0,1,6,0,0,0,0,0,0,1,17,34,9,0,0,0,7,0,0,0,0,0,1,0,0,0,0],"split_type":[0,0,0,0,0,0,0,0,0,0,0,0,0,0,0,0,0,0,0,0,0,0,0,0,0,0,0,0,0,0,0,0,0,0,0],"sum_hessian":[5.255622E1,3.5229683E1,1.7326538E1,9.590263E0,2.563942E1,1.4204748E1,3.1217904E0,8.534865E0,1.0553979E0,9.580929E0,1.605849E1,1.3148624E1,1.0561246E0,1.0663438E0,2.0554466E0,6.8908634E0,1.6440018E0,6.6234856E0,2.9574432E0,2.7490942E0,1.3309397E1,5.1715617E0,1.7193017E0,1.1356306E0,5.487855E0,1.9132965E0,1.0441468E0,1.1933411E0,1.5557532E0,1.004757E0,1.230464E1,4.39562E0,1.0922351E0,1.1263423E1,1.0412167E0],"tree_param":{"num_deleted":"0","num_feature":"37","num_nodes":"35","size_leaf_vector":"1"}},{"base_weights":[-2.0522973E-2,-5.213907E-1,4.942443E-1,-7.006967E-1,6.221964E-1,8.514812E-1,-2.1715975E-1,3.0649314E-2,-8.7763757E-1,4.7692727E-2,-7.605844E-3,-1.4547068E-2,9.630179E-1,-4.9720135E-2,3.005761E-1,6.865248E-1,-4.3707043E-2,-1.1364149E0,-2.6982874E-1,6.253888E-2,3.5146627E-1,-5.2648586E-1,8.58586E-1,4.6124816E-2,2.3146688E-3,-6.0447734E-2,-7.654731E-3,2.6215056E-2,-6.867594E-1,-3.6271244E-2,7.852391E-1,7.721448E-3,-4.7198586E-2,4.9574565E-2,1.060802E-2,-4.741908E-2,7.827955E-3,5.1911872E-2,-4.6586855E-3],"categories":[],"categories_nodes":[],"categories_segments":[],"categories_sizes":[],"default_left":[0,0,0,0,0,0,0,0,0,0,0,0,0,0,0,0,0,0,0,0,0,0,0,0,0,0,0,0,0,0,0,0,0,0,0,0,0,0,0],"id":19,"left_children":[1,3,5,7,9,11,13,15,17,-1,-1,-1,19,-1,21,23,-1,25,27,-1,29,31,33,-1,-1,-1,-1,-1,35,-1,37,-1,-1,-1,-1,-1,-1,-1,-1],"loss_changes":[1.3607851E1,5.9197855E0,6.8085723E0,3.0884542E0,1.2179483E0,2.5226965E0,4.125367E0,3.8925989E0,2.674344E0,0E0,0E0,0E0,2.3997622E0,0E0,3.4353547E0,5.1941717E-1,0E0,7.30917E-1,2.6823983E0,0E0,3.6503613E0,1.0673398E0,1.421411E-1,0E0,0E0,0E0,0E0,0E0,1.2677772E0,0E0,1.2589905E0,0E0,0E0,0E0,0E0,0E0,0E0,0E0,0E0],"parents":[2147483647,0,0,1,1,2,2,3,3,4,4,5,5,6,6,7,7,8,8,12,12,14,14,15,15,17,17,18,18,20,20,21,21,22,22,28,28,30,30],"right_children":[2,4,6,8,10,12,14,16,18,-1,-1,-1,20,-1,22,24,-1,26,28,-1,30,32,34,-1,-1,-1,-1,-1,36,-1,38,-1,-1,-1,-1,-1,-1,-1,-1],"split_conditions":[2.9025822E1,1.0808577E1,1.078328E3,6.172089E-1,7.0664246E2,1.7139386E2,4.1846573E2,4E0,4.5629845E0,4.7692727E-2,-7.605844E-3,-1.4547068E-2,-7.2046476E-3,-4.9720135E-2,1.5503947E2,4.30927E1,-4.3707043E-2,9.277486E-2,2.2524364E2,6.253888E-2,1.9881223E-1,1.1291425E2,1.3840238E3,4.6124816E-2,2.3146688E-3,-6.0447734E-2,-7.654731E-3,2.6215056E-2,6.3138727E2,-3.6271244E-2,9.434067E0,7.721448E-3,-4.7198586E-2,4.9574565E-2,1.060802E-2,-4.741908E-2,7.827955E-3,5.1911872E-2,-4.6586855E-3],"split_indices":[22,24,13,10,12,9,11,16,20,0,0,0,34,0,1,3,0,36,7,0,33,1,10,0,0,0,0,0,11,0,20,0,0,0,0,0,0,0,0],"split_type":[0,0,0,0,0,0,0,0,0,0,0,0,0,0,0,0,0,0,0,0,0,0,0,0,0,0,0,0,0,0,0,0,0,0,0,0,0,0,0],"sum_hessian":[5.0777805E1,2.573969E1,2.5038115E1,2.2593258E1,3.1464314E0,1.654638E1,8.4917345E0,4.5513835E0,1.8041876E1,2.049585E0,1.0968463E0,1.3207154E0,1.5225664E1,3.0346506E0,5.4570837E0,2.7849095E0,1.7664742E0,1.2032739E1,6.009136E0,9.631875E0,5.593789E0,2.2140589E0,3.2430246E0,1.7013428E0,1.0835665E0,1.0982897E1,1.0498419E0,1.9718443E0,4.0372915E0,1.4065217E0,4.1872673E0,1.0719178E0,1.1421412E0,2.2343633E0,1.0086614E0,2.9953284E0,1.0419633E0,3.1185164E0,1.0687509E0],"tree_param":{"num_deleted":"0","num_feature":"37","num_nodes":"39","size_leaf_vector":"1"}},{"base_weights":[-3.0032314E-2,3.3199444E-1,-5.8343973E-2,-2.703677E-1,6.834378E-1,-8.0599135E-1,4.4707662E-1,-2.6187563E-2,7.64777E-1,-5.481402E-2,-2.4540327E-1,5.6307197E-2,-3.91774E-2,5.1597583E-1,1.1216823E0,-3.9769005E-2,3.170057E-2,9.686791E-1,1.8373463E-2,1.4784495E-2,5.9320755E-2,5.945138E-2,8.288686E-3,-3.0806119E-2,3.013829E-2],"categories":[],"categories_nodes":[],"categories_segments":[],"categories_sizes":[],"default_left":[0,0,0,0,0,0,0,0,0,0,0,0,0,0,0,0,0,0,0,0,0,0,0,0,0],"id":20,"left_children":[1,3,-1,5,7,9,11,-1,13,-1,15,-1,-1,17,19,-1,-1,21,23,-1,-1,-1,-1,-1,-1],"loss_changes":[2.1484331E1,8.579555E0,0E0,6.247356E0,2.889676E0,1.2034073E0,6.885639E0,0E0,1.5485134E0,0E0,2.641349E0,0E0,0E0,3.5975275E0,1.18136406E-1,0E0,0E0,1.2748938E0,3.5957313E0,0E0,0E0,0E0,0E0,0E0,0E0],"parents":[2147483647,0,0,1,1,3,3,4,4,5,5,6,6,8,8,10,10,13,13,14,14,17,17,18,18],"right_children":[2,4,-1,6,8,10,12,-1,14,-1,16,-1,-1,18,20,-1,-1,22,24,-1,-1,-1,-1,-1,-1],"split_conditions":[3.12664E2,2.7522465E1,-5.8343973E-2,2.1417227E4,4.809194E0,1.5286161E0,9.81653E2,-2.6187563E-2,5E0,-5.481402E-2,8.085925E0,5.6307197E-2,-3.91774E-2,5.0786297E1,1.3551158E-2,-3.9769005E-2,3.170057E-2,4.0409222E-2,2.955929E-1,1.4784495E-2,5.9320755E-2,5.945138E-2,8.288686E-3,-3.0806119E-2,3.013829E-2],"split_indices":[14,22,0,6,24,23,19,0,16,0,24,0,0,21,10,0,0,28,25,0,0,0,0,0,0],"split_type":[0,0,0,0,0,0,0,0,0,0,0,0,0,0,0,0,0,0,0,0,0,0,0,0,0],"sum_hessian":[5.023948E1,3.863531E1,1.1604167E1,1.4310254E1,2.4325056E1,8.130655E0,6.179599E0,1.1844274E0,2.3140629E1,4.715436E0,3.4152198E0,4.0421424E0,2.1374564E0,1.5092942E1,8.047687E0,2.1669562E0,1.2482635E0,7.3967853E0,7.696157E0,1.0007261E0,7.04696E0,5.4168344E0,1.9799511E0,3.6556637E0,4.0404935E0],"tree_param":{"num_deleted":"0","num_feature":"37","num_nodes":"25","size_leaf_vector":"1"}},{"base_weights":[-1.8421737E-2,3.216122E-1,-5.7422746E-2,-3.0079857E-1,6.74646E-1,-5.3329337E-1,4.3921776E-2,-2.2058811E-2,7.917313E-1,-1.16015844E-1,-9.615931E-1,-2.5526455E-2,8.8752013E-1,-4.69082E-2,3.773563E-1,-4.7375564E-3,-5.768903E-2,9.5642406E-1,-1.066785E-2,-1.8876856E-2,5.0042357E-2,-6.834076E-3,5.1170785E-2],"categories":[],"categories_nodes":[],"categories_segments":[],"categories_sizes":[],"default_left":[0,0,0,0,0,0,0,0,0,0,0,0,0,0,0,0,0,0,0,0,0,0,0],"id":21,"left_children":[1,3,-1,5,7,9,-1,-1,11,13,15,-1,17,-1,19,-1,-1,21,-1,-1,-1,-1,-1],"loss_changes":[1.9040052E1,8.580392E0,0E0,4.433218E0,3.5712748E0,2.1508756E0,0E0,0E0,3.2837133E0,3.4389877E0,8.990569E-1,0E0,1.8409348E0,0E0,2.9492464E0,0E0,0E0,1.6431141E0,0E0,0E0,0E0,0E0,0E0],"parents":[2147483647,0,0,1,1,3,3,4,4,5,5,8,8,9,9,10,10,12,12,14,14,17,17],"right_children":[2,4,-1,6,8,10,-1,-1,12,14,16,-1,18,-1,20,-1,-1,22,-1,-1,-1,-1,-1],"split_conditions":[2.4206735E2,2.7522465E1,-5.7422746E-2,1.0808577E1,5.85805E-3,9.780712E2,4.3921776E-2,-2.2058811E-2,4.809194E0,5.110506E3,2.5698043E-2,-2.5526455E-2,4.3861807E3,-4.69082E-2,1.618159E-1,-4.7375564E-3,-5.768903E-2,1.6753503E2,-1.066785E-2,-1.8876856E-2,5.0042357E-2,-6.834076E-3,5.1170785E-2],"split_indices":[14,22,0,24,10,19,0,0,24,6,28,0,10,0,29,0,0,9,0,0,0,0,0],"split_type":[0,0,0,0,0,0,0,0,0,0,0,0,0,0,0,0,0,0,0,0,0,0,0],"sum_hessian":[4.7568493E1,3.710878E1,1.0459714E1,1.34737425E1,2.3635036E1,1.1719415E1,1.7543274E0,1.9735653E0,2.1661472E1,6.591636E0,5.1277785E0,1.1803496E0,2.0481121E1,2.141615E0,4.4500213E0,1.2109516E0,3.9168272E0,1.9406754E1,1.0743687E0,2.1840796E0,2.2659416E0,1.0519823E0,1.835477E1],"tree_param":{"num_deleted":"0","num_feature":"37","num_nodes":"23","size_leaf_vector":"1"}},{"base_weights":[-9.996498E-2,2.1251355E-1,-5.649624E-2,-4.5156068E-1,5.2174205E-1,-1.0309383E0,3.906293E-1,9.933279E-1,2.0656243E-1,-5.835992E-2,-1.9646874E-2,4.6038605E-2,-3.943911E-2,2.5299254E-3,5.5941153E-2,5.605327E-1,-6.814041E-1,-3.813554E-2,7.622451E-1,-9.613408E-1,-9.0769766E-4,5.1063444E-2,6.9728396E-3,-5.7050984E-2,-1.237056E-2],"categories":[],"categories_nodes":[],"categories_segments":[],"categories_sizes":[],"default_left":[0,0,0,0,0,0,0,0,0,0,0,0,0,0,0,0,0,0,0,0,0,0,0,0,0],"id":22,"left_children":[1,3,-1,5,7,9,11,13,15,-1,-1,-1,-1,-1,-1,17,19,-1,21,23,-1,-1,-1,-1,-1],"loss_changes":[1.6089973E1,8.162139E0,0E0,6.64913E0,3.767446E0,2.0890045E-1,4.4355164E0,1.1696911E0,5.832228E0,0E0,0E0,0E0,0E0,0E0,0E0,4.0399103E0,9.728737E-1,0E0,1.7414851E0,1.8588614E-1,0E0,0E0,0E0,0E0,0E0],"parents":[2147483647,0,0,1,1,3,3,4,4,5,5,6,6,7,7,8,8,15,15,16,16,18,18,19,19],"right_children":[2,4,-1,6,8,10,12,14,16,-1,-1,-1,-1,-1,-1,18,20,-1,22,24,-1,-1,-1,-1,-1],"split_conditions":[3.12664E2,2.6300018E1,-5.649624E-2,2.2468994E4,2.1128398E2,1.9706396E0,9.933794E2,1.6753503E2,5.070989E0,-5.835992E-2,-1.9646874E-2,4.6038605E-2,-3.943911E-2,2.5299254E-3,5.5941153E-2,4.172356E2,2.5470877E-1,-3.813554E-2,1.9806182E4,9.830361E2,-9.0769766E-4,5.1063444E-2,6.9728396E-3,-5.7050984E-2,-1.237056E-2],"split_indices":[14,22,0,5,15,23,18,9,23,0,0,0,0,0,0,9,25,0,5,9,0,0,0,0,0],"split_type":[0,0,0,0,0,0,0,0,0,0,0,0,0,0,0,0,0,0,0,0,0,0,0,0,0],"sum_hessian":[4.8219048E1,3.7596607E1,1.0622439E1,1.1788326E1,2.580828E1,6.8581066E0,4.9302197E0,9.464187E0,1.6344093E1,4.9547634E0,1.9033432E0,3.5584698E0,1.3717499E0,1.286062E0,8.178125E0,1.1957486E1,4.3866076E0,1.2072318E0,1.0750255E1,2.7580194E0,1.628588E0,7.1292434E0,3.6210115E0,1.7143319E0,1.0436877E0],"tree_param":{"num_deleted":"0","num_feature":"37","num_nodes":"25","size_leaf_vector":"1"}},{"base_weights":[-1.0678971E-1,2.0677745E-1,-5.6088712E-2,-4.0575832E-1,6.4556104E-1,-5.946638E-1,4.0870328E-2,1.0165299E0,1.5930653E-1,-1.0572803E0,-1.7780642E-1,-1.5305148E-2,5.9824463E-2,5.787522E-1,-8.119417E-1,-1.4094752E-2,-6.0238715E-2,1.9642542E-1,-4.7694515E-2,-2.122512E-2,8.8255143E-1,-5.2832127E-2,-9.709613E-3,-2.7135914E-2,3.7344985E-2,5.594457E-2,-6.172451E-3],"categories":[],"categories_nodes":[],"categories_segments":[],"categories_sizes":[],"default_left":[0,0,0,0,0,0,0,0,0,0,0,0,0,0,0,0,0,0,0,0,0,0,0,0,0,0,0],"id":23,"left_children":[1,3,-1,5,7,9,-1,11,13,15,17,-1,-1,19,21,-1,-1,23,-1,-1,25,-1,-1,-1,-1,-1,-1],"loss_changes":[1.5885549E1,1.0582548E1,0E0,4.3258076E0,3.9324217E0,2.6901922E0,0E0,3.4015055E0,4.968528E0,4.3359566E-1,2.8373017E0,0E0,0E0,2.9111326E0,3.4784222E-1,0E0,0E0,3.2387304E0,0E0,0E0,1.7431307E0,0E0,0E0,0E0,0E0,0E0,0E0],"parents":[2147483647,0,0,1,1,3,3,4,4,5,5,7,7,8,8,9,9,10,10,13,13,14,14,17,17,20,20],"right_children":[2,4,-1,6,8,10,-1,12,14,16,18,-1,-1,20,22,-1,-1,24,-1,-1,26,-1,-1,-1,-1,-1,-1],"split_conditions":[3.12664E2,2.9033129E1,-5.6088712E-2,1.1284546E1,2.8008997E2,7.8397764E3,4.0870328E-2,1.7139386E2,4.7557344E0,3.469179E-2,9.9496747E2,-1.5305148E-2,5.9824463E-2,3.2396527E2,-3.2217097E-1,-1.4094752E-2,-6.0238715E-2,4.3461222E-2,-4.7694515E-2,-2.122512E-2,8.188892E0,-5.2832127E-2,-9.709613E-3,-2.7135914E-2,3.7344985E-2,5.594457E-2,-6.172451E-3],"split_indices":[14,22,0,24,15,6,0,9,23,32,19,0,0,15,31,0,0,14,0,0,24,0,0,0,0,0,0],"split_type":[0,0,0,0,0,0,0,0,0,0,0,0,0,0,0,0,0,0,0,0,0,0,0,0,0,0,0],"sum_hessian":[4.8155266E1,3.7390385E1,1.0764882E1,1.5627327E1,2.1763056E1,1.3988891E1,1.6384361E0,1.1714693E1,1.0048364E1,5.8909645E0,8.097926E0,1.3124151E0,1.0402278E1,7.3071084E0,2.741255E0,1.4175965E0,4.473368E0,5.9586496E0,2.1392767E0,1.5983968E0,5.7087116E0,1.4429998E0,1.2982553E0,2.5417132E0,3.4169364E0,4.5398793E0,1.168832E0],"tree_param":{"num_deleted":"0","num_feature":"37","num_nodes":"27","size_leaf_vector":"1"}},{"base_weights":[-7.208402E-2,3.2372317E-1,-8.747722E-1,-1.925805E-1,7.302254E-1,-2.9345753E-3,-5.635777E-2,7.60557E-2,-5.096159E-2,-2.2985606E-2,8.316537E-1,-2.787128E-2,4.1131738E-1,-8.088853E-1,4.9481505E-1,1.0946487E0,2.8950176E-1,-8.6241895E-3,3.8198516E-2,-5.134494E-2,-1.7874538E-3,-2.3672102E-2,7.237195E-1,5.810097E-2,1.16938595E-2,-3.6341792E-1,4.037205E-2,5.378276E-2,-1.1170546E-2,1.1530093E-2,-4.1080188E-2],"categories":[],"categories_nodes":[],"categories_segments":[],"categories_sizes":[],"default_left":[0,0,0,0,0,0,0,0,0,0,0,0,0,0,0,0,0,0,0,0,0,0,0,0,0,0,0,0,0,0,0],"id":24,"left_children":[1,3,5,7,9,11,-1,13,-1,-1,15,-1,17,19,21,23,25,-1,-1,-1,-1,-1,27,-1,-1,29,-1,-1,-1,-1,-1],"loss_changes":[1.5706114E1,7.1186256E0,3.5730038E0,3.5101492E0,2.6559324E0,1.3038522E0,0E0,5.0499697E0,0E0,0E0,2.1920767E0,0E0,8.045616E-1,6.9512296E-1,2.3733182E0,3.8360977E-1,2.7163146E0,0E0,0E0,0E0,0E0,0E0,2.8504572E0,0E0,0E0,1.2417612E0,0E0,0E0,0E0,0E0,0E0],"parents":[2147483647,0,0,1,1,2,2,3,3,4,4,5,5,7,7,10,10,12,12,13,13,14,14,15,15,16,16,22,22,25,25],"right_children":[2,4,6,8,10,12,-1,14,-1,-1,16,-1,18,20,22,24,26,-1,-1,-1,-1,-1,28,-1,-1,30,-1,-1,-1,-1,-1],"split_conditions":[9.898447E0,2.9033129E1,1.0234307E3,4.0296042E3,1.7139386E2,4.0736427E1,-5.635777E-2,6.665956E3,-5.096159E-2,-2.2985606E-2,-6.3819E-3,-2.787128E-2,-1.9947718E-1,8.779144E2,1.2890063E-1,2.9218604E2,9.856272E-3,-8.6241895E-3,3.8198516E-2,-5.134494E-2,-1.7874538E-3,-2.3672102E-2,1.2854306E-2,5.810097E-2,1.16938595E-2,3.2999057E-3,4.037205E-2,5.378276E-2,-1.1170546E-2,1.1530093E-2,-4.1080188E-2],"split_indices":[14,22,13,9,9,21,0,5,0,0,34,0,35,9,29,1,26,0,0,0,0,0,30,0,0,26,0,0,0,0,0],"split_type":[0,0,0,0,0,0,0,0,0,0,0,0,0,0,0,0,0,0,0,0,0,0,0,0,0,0,0,0,0,0,0],"sum_hessian":[4.752674E1,3.2222168E1,1.5304573E1,1.4415063E1,1.7807104E1,3.6718187E0,1.1632754E1,1.1555711E1,2.8593519E0,1.1134422E0,1.6693663E1,1.4326652E0,2.2391536E0,3.4048746E0,8.150836E0,1.0542181E1,6.151481E0,1.0249442E0,1.2142093E0,2.3898199E0,1.0150548E0,1.3458712E0,6.804965E0,9.441616E0,1.1005653E0,2.844591E0,3.30689E0,4.8701634E0,1.9348016E0,1.4454736E0,1.3991175E0],"tree_param":{"num_deleted":"0","num_feature":"37","num_nodes":"31","size_leaf_vector":"1"}},{"base_weights":[-3.537633E-2,2.9714075E-1,-9.318109E-1,-6.2128025E-1,5.109832E-1,2.5985546E-3,-5.5555798E-2,-4.8908092E-2,1.8689383E-2,6.068399E-1,-4.035183E-2,2.4568757E-2,-2.0332778E-2,2.0383152E-1,8.815577E-1,8.139197E-1,-3.697088E-1,-8.719667E-3,9.7139615E-1,2.0909074E-3,5.0583493E-2,-4.145678E-2,2.1080151E-2,5.486666E-2,-0E0],"categories":[],"categories_nodes":[],"categories_segments":[],"categories_sizes":[],"default_left":[0,0,0,0,0,0,0,0,0,0,0,0,0,0,0,0,0,0,0,0,0,0,0,0,0],"id":25,"left_children":[1,3,5,7,9,-1,-1,-1,11,13,-1,-1,-1,15,17,19,21,-1,23,-1,-1,-1,-1,-1,-1],"loss_changes":[1.4083894E1,7.096326E0,2.3221464E0,1.6180232E0,4.095953E0,0E0,0E0,0E0,8.970785E-1,2.8209734E0,0E0,0E0,0E0,4.6237674E0,1.6818838E0,9.092159E-1,2.9132073E0,0E0,1.8093147E0,0E0,0E0,0E0,0E0,0E0,0E0],"parents":[2147483647,0,0,1,1,2,2,3,3,4,4,8,8,9,9,13,13,14,14,15,15,16,16,18,18],"right_children":[2,4,6,8,10,-1,-1,-1,12,14,-1,-1,-1,16,18,20,22,-1,24,-1,-1,-1,-1,-1,-1],"split_conditions":[8.727193E1,3.8730915E1,8.297459E2,4.3461222E-2,5.8226055E3,2.5985546E-3,-5.5555798E-2,-4.8908092E-2,4.6865126E-1,1.6809014E3,-4.035183E-2,2.4568757E-2,-2.0332778E-2,2.702538E2,3E0,1.6753503E2,5.4142418E1,-8.719667E-3,-1.3235295E-1,2.0909074E-3,5.0583493E-2,-4.145678E-2,2.1080151E-2,5.486666E-2,-0E0],"split_indices":[14,21,9,14,8,0,0,0,14,8,0,0,0,13,16,9,21,0,31,0,0,0,0,0,0],"split_type":[0,0,0,0,0,0,0,0,0,0,0,0,0,0,0,0,0,0,0,0,0,0,0,0,0],"sum_hessian":[4.5298565E1,3.3521656E1,1.177691E1,5.9623194E0,2.7559336E1,1.9164455E0,9.860464E0,3.4985275E0,2.4637918E0,2.6200968E1,1.3583688E0,1.1045626E0,1.3592292E0,1.1341486E1,1.4859482E1,5.3010044E0,6.0404816E0,1.0825701E0,1.3776912E1,1.3381865E0,3.962818E0,3.7994194E0,2.2410622E0,1.2082333E1,1.6945792E0],"tree_param":{"num_deleted":"0","num_feature":"37","num_nodes":"25","size_leaf_vector":"1"}},{"base_weights":[-1.4385344E-2,3.3775365E-1,-1.033913E0,-3.2079825E-1,6.4943135E-1,-1.0963847E-2,-5.4608107E-2,4.1682884E-1,-7.509148E-1,-1.9206725E-2,7.722338E-1,-1.9148933E-2,3.8368255E-2,-4.611045E-2,6.846316E-3,3.243585E-1,9.7155577E-1,-3.4383297E-1,6.612868E-1,2.3647553E-1,1.0945688E0,-4.41893E-2,1.6752305E-2,4.93246E-2,-9.10339E-3,-2.0814383E-2,3.631967E-2,5.8845498E-2,5.3835097E-3],"categories":[],"categories_nodes":[],"categories_segments":[],"categories_sizes":[],"default_left":[0,0,0,0,0,0,0,0,0,0,0,0,0,0,0,0,0,0,0,0,0,0,0,0,0,0,0,0,0],"id":26,"left_children":[1,3,5,7,9,-1,-1,11,13,-1,15,-1,-1,-1,-1,17,19,21,23,25,27,-1,-1,-1,-1,-1,-1,-1,-1],"loss_changes":[1.6092073E1,7.0517387E0,2.9337597E-1,3.921863E0,3.2147655E0,0E0,0E0,1.6491641E0,1.2814388E0,0E0,1.5343752E0,0E0,0E0,0E0,0E0,2.0185375E0,9.866533E-1,1.5149949E0,1.7322316E0,1.3553631E0,8.0617523E-1,0E0,0E0,0E0,0E0,0E0,0E0,0E0,0E0],"parents":[2147483647,0,0,1,1,2,2,3,3,4,4,7,7,8,8,10,10,15,15,16,16,17,17,18,18,19,19,20,20],"right_children":[2,4,6,8,10,-1,-1,12,14,-1,16,-1,-1,-1,-1,18,20,22,24,26,28,-1,-1,-1,-1,-1,-1,-1,-1],"split_conditions":[2.1746172E2,2.6828333E1,1.2684657E3,6.172089E-1,-6.214597E-3,-1.0963847E-2,-5.4608107E-2,6.722078E3,6.580021E1,-1.9206725E-2,4.6909395E-1,-1.9148933E-2,3.8368255E-2,-4.611045E-2,6.846316E-3,3.6822667E0,2.5804434E0,3.9494964E-1,-4.9417606E-3,1.26531315E1,2.758352E3,-4.41893E-2,1.6752305E-2,4.93246E-2,-9.10339E-3,-2.0814383E-2,3.631967E-2,5.8845498E-2,5.3835097E-3],"split_indices":[14,22,12,10,26,0,0,5,2,0,10,0,0,0,0,2,20,29,34,2,10,0,0,0,0,0,0,0,0],"split_type":[0,0,0,0,0,0,0,0,0,0,0,0,0,0,0,0,0,0,0,0,0,0,0,0,0,0,0,0,0],"sum_hessian":[4.283071E1,3.2324814E1,1.05058975E1,1.0364354E1,2.196046E1,1.0304729E0,9.475425E0,3.8203318E0,6.5440226E0,2.0974853E0,1.9862974E1,1.1272477E0,2.693084E0,5.4626484E0,1.081374E0,6.9419446E0,1.292103E1,2.3102055E0,4.631739E0,2.282903E0,1.0638126E1,1.1268517E0,1.1833537E0,3.2288132E0,1.4029261E0,1.0344663E0,1.2484367E0,9.631836E0,1.0062912E0],"tree_param":{"num_deleted":"0","num_feature":"37","num_nodes":"29","size_leaf_vector":"1"}},{"base_weights":[-2.2714201E-2,2.9755136E-1,-5.3668886E-2,4.3464684E-1,-4.2474665E-2,-1.6504076E-1,6.588629E-1,-5.765744E-1,3.5929345E-2,9.169422E-1,1.2710036E-1,1.322853E-2,-8.515581E-1,1.0857102E0,2.52661E-1,-4.0278995E-1,4.3401044E-2,-5.9787696E-3,-5.7463635E-2,5.9140474E-2,8.018746E-3,-3.6616135E-2,4.4742234E-2,-4.4118628E-2,1.2796002E-2],"categories":[],"categories_nodes":[],"categories_segments":[],"categories_sizes":[],"default_left":[0,0,0,0,0,0,0,0,0,0,0,0,0,0,0,0,0,0,0,0,0,0,0,0,0],"id":27,"left_children":[1,3,-1,5,-1,7,9,11,-1,13,15,-1,17,19,21,23,-1,-1,-1,-1,-1,-1,-1,-1,-1],"loss_changes":[1.5632647E1,5.968893E0,0E0,4.4836316E0,0E0,3.9155362E0,3.148593E0,1.8812852E0,0E0,1.4943495E0,3.8769133E0,0E0,1.0751381E0,9.0741634E-1,3.5258944E0,2.097936E0,0E0,0E0,0E0,0E0,0E0,0E0,0E0,0E0,0E0],"parents":[2147483647,0,0,1,1,3,3,5,5,6,6,7,7,9,9,10,10,12,12,13,13,14,14,15,15],"right_children":[2,4,-1,6,-1,8,10,12,-1,14,16,-1,18,20,22,24,-1,-1,-1,-1,-1,-1,-1,-1,-1],"split_conditions":[3.12664E2,5.321755E3,-5.3668886E-2,8.492992E3,-4.2474665E-2,9.9496747E2,-1.7391658E-1,2.0114229E2,3.5929345E-2,9.440959E0,-1.2601067E-1,1.322853E-2,2.3256211E0,4.4156298E-1,-2.236459E-2,9.492488E2,4.3401044E-2,-5.9787696E-3,-5.7463635E-2,5.9140474E-2,8.018746E-3,-3.6616135E-2,4.4742234E-2,-4.4118628E-2,1.2796002E-2],"split_indices":[14,8,0,4,0,19,35,15,0,20,35,0,2,25,30,19,0,0,0,0,0,0,0,0,0],"split_type":[0,0,0,0,0,0,0,0,0,0,0,0,0,0,0,0,0,0,0,0,0,0,0,0,0],"sum_hessian":[4.4485584E1,3.4635265E1,9.850319E0,3.150014E1,3.1351259E0,8.632091E0,2.2868048E1,6.134068E0,2.4980228E0,1.4895629E1,7.9724193E0,1.5116374E0,4.622431E0,1.1360023E1,3.5356057E0,4.906363E0,3.0660563E0,1.751442E0,2.8709886E0,1.001957E1,1.3404524E0,1.3338329E0,2.201773E0,2.651522E0,2.254841E0],"tree_param":{"num_deleted":"0","num_feature":"37","num_nodes":"25","size_leaf_vector":"1"}},{"base_weights":[1.0651087E-2,3.1100705E-1,-5.3000968E-2,4.328931E-1,-4.6369083E-2,-5.897755E-2,6.5312266E-1,-5.6527156E-1,6.009319E-1,9.4070566E-1,3.4074936E-2,1.4104028E-2,-9.1394997E-1,-1.2393793E-2,4.525495E-2,1.0227827E0,-1.1564491E-3,-7.7123135E-1,7.4976206E-1,-5.4947346E-2,-4.8565534E-3,2.3917107E-2,5.8466442E-2,-5.1674894E-3,-5.433021E-2,5.0377514E-2,-5.4314206E-3],"categories":[],"categories_nodes":[],"categories_segments":[],"categories_sizes":[],"default_left":[0,0,0,0,0,0,0,0,0,0,0,0,0,0,0,0,0,0,0,0,0,0,0,0,0,0,0],"id":28,"left_children":[1,3,-1,5,-1,7,9,11,13,15,17,-1,19,-1,-1,21,-1,23,25,-1,-1,-1,-1,-1,-1,-1,-1],"loss_changes":[1.4188636E1,5.5970125E0,0E0,3.5168562E0,0E0,3.9533358E0,3.9172888E0,2.2273283E0,1.5662681E0,1.2310352E0,5.2479963E0,0E0,6.2955666E-1,0E0,0E0,5.3957367E-1,0E0,7.813077E-1,1.1814129E0,0E0,0E0,0E0,0E0,0E0,0E0,0E0,0E0],"parents":[2147483647,0,0,1,1,3,3,5,5,6,6,7,7,8,8,9,9,10,10,12,12,15,15,17,17,18,18],"right_children":[2,4,-1,6,-1,8,10,12,14,16,18,-1,20,-1,-1,22,-1,24,26,-1,-1,-1,-1,-1,-1,-1,-1],"split_conditions":[2.4206735E2,5.8226055E3,-5.3000968E-2,7.8462075E3,-4.6369083E-2,9.998621E2,-1.7391658E-1,9.293803E2,7.302738E0,2.9437616E2,1.5893709E1,1.4104028E-2,9.692375E0,-1.2393793E-2,4.525495E-2,-3.150631E-1,-1.1564491E-3,1.2234674E2,4.9676126E2,-5.4947346E-2,-4.8565534E-3,2.3917107E-2,5.8466442E-2,-5.1674894E-3,-5.433021E-2,5.0377514E-2,-5.4314206E-3],"split_indices":[14,8,0,5,0,17,35,19,24,1,2,0,24,0,0,35,0,1,15,0,0,0,0,0,0,0,0],"split_type":[0,0,0,0,0,0,0,0,0,0,0,0,0,0,0,0,0,0,0,0,0,0,0,0,0,0,0],"sum_hessian":[4.2119457E1,3.3453564E1,8.665892E0,3.10555E1,2.3980653E0,9.816864E0,2.1238634E1,5.6447096E0,4.172155E0,1.4135933E1,7.102702E0,1.6929219E0,3.9517875E0,1.1408085E0,3.0313466E0,1.2979829E1,1.1561038E0,3.2990072E0,3.8036947E0,2.9304454E0,1.0213419E0,3.671609E0,9.30822E0,1.4941605E0,1.8048465E0,2.8005335E0,1.0031612E0],"tree_param":{"num_deleted":"0","num_feature":"37","num_nodes":"27","size_leaf_vector":"1"}},{"base_weights":[-3.7764627E-2,2.573893E-1,-5.235718E-2,-2.9095042E-1,5.379886E-1,-8.5088277E-1,3.689473E-1,1.7947116E-1,8.496425E-1,-4.915227E-2,-3.1561013E-3,4.2307444E-2,-2.919108E-2,4.5527312E-1,-3.8320523E-2,9.992583E-1,2.3635268E-1,-5.527495E-1,8.099034E-1,5.428722E-2,7.4131936E-3,3.7699807E-2,-2.6603153E-2,-4.0239953E-2,-3.005096E-4,-4.6186033E-3,4.922129E-2],"categories":[],"categories_nodes":[],"categories_segments":[],"categories_sizes":[],"default_left":[0,0,0,0,0,0,0,0,0,0,0,0,0,0,0,0,0,0,0,0,0,0,0,0,0,0,0],"id":29,"left_children":[1,3,-1,5,7,9,11,13,15,-1,-1,-1,-1,17,-1,19,21,23,25,-1,-1,-1,-1,-1,-1,-1,-1],"loss_changes":[1.3060052E1,5.389347E0,0E0,4.805878E0,2.3902788E0,6.437993E-1,3.3444822E0,3.4524784E0,8.471422E-1,0E0,0E0,0E0,0E0,3.973407E0,0E0,5.094099E-1,1.8610802E0,4.2141175E-1,1.3129382E0,0E0,0E0,0E0,0E0,0E0,0E0,0E0,0E0],"parents":[2147483647,0,0,1,1,3,3,4,4,5,5,6,6,7,7,8,8,13,13,15,15,16,16,17,17,18,18],"right_children":[2,4,-1,6,8,10,12,14,16,-1,-1,-1,-1,18,-1,20,22,24,26,-1,-1,-1,-1,-1,-1,-1,-1],"split_conditions":[3.12664E2,2.6828333E1,-5.235718E-2,2.1979598E4,8.558533E-3,2.526764E1,9.81653E2,-1.4595289E-3,3.485706E1,-4.915227E-2,-3.1561013E-3,4.2307444E-2,-2.919108E-2,1.7229012E-1,-3.8320523E-2,2.542645E2,3.3503677E2,-1.815872E-2,2.7651834E-1,5.428722E-2,7.4131936E-3,3.7699807E-2,-2.6603153E-2,-4.0239953E-2,-3.005096E-4,-4.6186033E-3,4.922129E-2],"split_indices":[14,22,0,5,26,22,19,30,22,0,0,0,0,33,0,1,13,30,23,0,0,0,0,0,0,0,0],"split_type":[0,0,0,0,0,0,0,0,0,0,0,0,0,0,0,0,0,0,0,0,0,0,0,0,0,0,0],"sum_hessian":[4.1905933E1,3.2993385E1,8.912547E0,1.11438465E1,2.1849539E1,5.8801746E0,5.263672E0,1.0908584E1,1.0940956E1,4.8122334E0,1.0679411E0,3.5886636E0,1.6750084E0,8.855679E0,2.0529048E0,8.276265E0,2.6646912E0,2.1519585E0,6.70372E0,7.251676E0,1.0245886E0,1.6111312E0,1.0535599E0,1.1373477E0,1.0146108E0,1.1535124E0,5.5502076E0],"tree_param":{"num_deleted":"0","num_feature":"37","num_nodes":"27","size_leaf_vector":"1"}},{"base_weights":[-9.886307E-2,1.9137016E-1,-7.18597E-1,-2.919879E-1,4.756071E-1,-8.938774E-1,3.1901833E-2,-6.0534537E-1,1.3959245E-1,6.458788E-1,-4.9832937E-1,-9.9211764E-1,4.402959E-3,1.2508104E-2,-8.387751E-1,3.7260216E-2,-2.3393495E-1,-1.7520864E-2,7.49084E-1,-3.2241844E-2,-3.8503818E-3,-8.589301E-3,-5.4594774E-2,-5.38084E-2,-8.578284E-3,1.6816631E-2,-4.072132E-2,9.8213696E-1,4.4323124E-2,3.857163E-4,5.449241E-2,-3.0375347E-2,3.9206203E-2],"categories":[],"categories_nodes":[],"categories_segments":[],"categories_sizes":[],"default_left":[0,0,0,0,0,0,0,0,0,0,0,0,0,0,0,0,0,0,0,0,0,0,0,0,0,0,0,0,0,0,0,0,0],"id":30,"left_children":[1,3,5,7,9,11,-1,13,15,17,19,21,-1,-1,23,-1,25,-1,27,-1,-1,-1,-1,-1,-1,-1,-1,29,31,-1,-1,-1,-1],"loss_changes":[7.6136312E0,4.134081E0,3.77568E0,1.6267871E0,3.4238696E0,1.2878408E0,0E0,1.5712585E0,1.4421265E0,1.9485192E0,1.4916915E-1,7.262068E-1,0E0,0E0,6.85395E-1,0E0,1.6701477E0,0E0,2.4346886E0,0E0,0E0,0E0,0E0,0E0,0E0,0E0,0E0,1.169548E0,2.803908E0,0E0,0E0,0E0,0E0],"parents":[2147483647,0,0,1,1,2,2,3,3,4,4,5,5,7,7,8,8,9,9,10,10,11,11,14,14,16,16,18,18,27,27,28,28],"right_children":[2,4,6,8,10,12,-1,14,16,18,20,22,-1,-1,24,-1,26,-1,28,-1,-1,-1,-1,-1,-1,-1,-1,30,32,-1,-1,-1,-1],"split_conditions":[1.2854306E-2,1.898114E-1,1.2849163E-1,8.558533E-3,2.2018193E3,6.9692596E2,3.1901833E-2,2.0892993E-2,1.1721372E-2,2.7504172E-3,4.0150452E3,2.2721065E2,4.402959E-3,1.2508104E-2,3.1187166E-2,3.7260216E-2,3.0675784E2,-1.7520864E-2,1.0314456E3,-3.2241844E-2,-3.8503818E-3,-8.589301E-3,-5.4594774E-2,-5.38084E-2,-8.578284E-3,1.6816631E-2,-4.072132E-2,1.7995295E-1,2.860525E3,3.857163E-4,5.449241E-2,-3.0375347E-2,3.9206203E-2],"split_indices":[30,33,30,26,10,7,0,36,26,10,10,13,0,0,36,0,7,0,13,0,0,0,0,0,0,0,0,23,8,0,0,0,0],"split_type":[0,0,0,0,0,0,0,0,0,0,0,0,0,0,0,0,0,0,0,0,0,0,0,0,0,0,0,0,0,0,0,0,0],"sum_hessian":[4.053528E1,2.8066341E1,1.2468935E1,1.0369714E1,1.7696629E1,1.1350854E1,1.1180809E0,5.787865E0,4.5818486E0,1.5358612E1,2.3380163E0,1.0318345E1,1.0325084E0,1.2161654E0,4.5716996E0,1.3785262E0,3.2033224E0,1.2077078E0,1.4150905E1,1.3235352E0,1.0144811E0,1.4249463E0,8.893399E0,2.9088175E0,1.6628823E0,1.819373E0,1.3839493E0,1.0327878E1,3.8230262E0,1.1439003E0,9.183978E0,2.1202261E0,1.7028E0],"tree_param":{"num_deleted":"0","num_feature":"37","num_nodes":"33","size_leaf_vector":"1"}},{"base_weights":[-4.6668053E-2,2.0232145E-1,-5.0848313E-2,-3.2032043E-1,6.1830723E-1,-9.016596E-1,7.956584E-2,5.0591297E-2,2.437675E-1,-5.5297803E-2,-3.3350438E-3,3.745752E-1,-4.1271117E-2,-2.0480601E-1,8.019115E-1,4.4673398E-2,-2.7166042E-1,3.696818E-2,-5.440614E-1,4.9603146E-2,1.8172701E-3,-4.8076432E-2,2.4794577E-2,1.7948667E-2,-4.193118E-2],"categories":[],"categories_nodes":[],"categories_segments":[],"categories_sizes":[],"default_left":[0,0,0,0,0,0,0,0,0,0,0,0,0,0,0,0,0,0,0,0,0,0,0,0,0],"id":31,"left_children":[1,3,-1,5,7,9,11,-1,13,-1,-1,15,-1,17,19,-1,21,-1,23,-1,-1,-1,-1,-1,-1],"loss_changes":[1.0240925E1,7.5613003E0,0E0,3.718505E0,2.5709996E0,1.0181417E0,3.0230007E0,0E0,2.9665322E0,0E0,0E0,3.0572503E0,0E0,2.635733E0,7.09183E-1,0E0,2.8579185E0,0E0,1.8268175E0,0E0,0E0,0E0,0E0,0E0,0E0],"parents":[2147483647,0,0,1,1,3,3,4,4,5,5,6,6,8,8,11,11,13,13,14,14,16,16,18,18],"right_children":[2,4,-1,6,8,10,12,-1,14,-1,-1,16,-1,18,20,-1,22,-1,24,-1,-1,-1,-1,-1,-1],"split_conditions":[3.12664E2,2.9033129E1,-5.0848313E-2,7.0193384E3,5.1660376E2,-1.6731139E-1,3.7944326E3,5.0591297E-2,2.955929E-1,-5.5297803E-2,-3.3350438E-3,-1.7170948E-1,-4.1271117E-2,2.1210229E-2,3.479502E1,4.4673398E-2,1.618159E-1,3.696818E-2,7.0023773E2,4.9603146E-2,1.8172701E-3,-4.8076432E-2,2.4794577E-2,1.7948667E-2,-4.193118E-2],"split_indices":[14,22,0,6,13,27,9,0,25,0,0,35,0,28,22,0,29,0,9,0,0,0,0,0,0],"split_type":[0,0,0,0,0,0,0,0,0,0,0,0,0,0,0,0,0,0,0,0,0,0,0,0,0],"sum_hessian":[4.0503605E1,3.2854057E1,7.6495442E0,1.4651695E1,1.8202364E1,5.469934E0,9.181762E0,8.033533E0,1.016883E1,4.1242723E0,1.3456614E0,7.3748474E0,1.8069143E0,5.9788465E0,4.189984E0,3.8868306E0,3.4880168E0,1.2608824E0,4.717964E0,3.1088815E0,1.0811023E0,1.7107335E0,1.7772833E0,1.0983015E0,3.6196625E0],"tree_param":{"num_deleted":"0","num_feature":"37","num_nodes":"25","size_leaf_vector":"1"}},{"base_weights":[3.9801147E-2,3.216325E-1,-5.0723623E-2,4.2620793E-1,-4.3232113E-2,5.313782E-1,-3.7077315E-2,7.599297E-1,1.2852414E-1,-1.8925563E-2,8.6084646E-1,4.6786115E-1,-5.179449E-1,1.0526332E-2,5.270145E-2,-1.5335175E-2,4.1087605E-2,-4.5182005E-2,1.7477958E-2],"categories":[],"categories_nodes":[],"categories_segments":[],"categories_sizes":[],"default_left":[0,0,0,0,0,0,0,0,0,0,0,0,0,0,0,0,0,0,0],"id":32,"left_children":[1,3,-1,5,-1,7,-1,9,11,-1,13,15,17,-1,-1,-1,-1,-1,-1],"loss_changes":[1.2455672E1,4.4575214E0,0E0,4.1992598E0,0E0,2.5663252E0,0E0,2.433403E0,2.8144884E0,0E0,1.9169636E0,2.512065E0,1.8275212E0,0E0,0E0,0E0,0E0,0E0,0E0],"parents":[2147483647,0,0,1,1,3,3,5,5,7,7,8,8,10,10,11,11,12,12],"right_children":[2,4,-1,6,-1,8,-1,10,12,-1,14,16,18,-1,-1,-1,-1,-1,-1],"split_conditions":[3.12664E2,5.0864575E3,-5.0723623E-2,7E0,-4.3232113E-2,-6.9048726E-3,-3.7077315E-2,1.9592197E-1,5.475319E0,-1.8925563E-2,1.4714034E-1,-3.6328933E-1,1.3921831E4,1.0526332E-2,5.270145E-2,-1.5335175E-2,4.1087605E-2,-4.5182005E-2,1.7477958E-2],"split_indices":[14,9,0,16,0,34,0,23,23,0,33,27,4,0,0,0,0,0,0],"split_type":[0,0,0,0,0,0,0,0,0,0,0,0,0,0,0,0,0,0,0],"sum_hessian":[3.9845493E1,3.199651E1,7.848985E0,3.0000938E1,1.9955703E0,2.803002E1,1.9709191E0,1.7302559E1,1.0727461E1,1.1768384E0,1.6125721E1,7.226146E0,3.5013142E0,4.1836467E0,1.1942075E1,2.2991202E0,4.9270263E0,2.4028645E0,1.0984497E0],"tree_param":{"num_deleted":"0","num_feature":"37","num_nodes":"19","size_leaf_vector":"1"}},{"base_weights":[6.793575E-3,2.7937773E-1,-5.0112147E-2,5.4728603E-1,-3.9624825E-1,6.273362E-1,-2.55933E-2,3.89458E-1,-9.824458E-1,7.0977676E-1,-6.8834014E-3,-1.7991623E-2,4.3214496E-2,-5.4960866E-2,-1.0622148E-2,7.8854847E-1,-4.3734293E-3,1.3543657E-2,4.739685E-2],"categories":[],"categories_nodes":[],"categories_segments":[],"categories_sizes":[],"default_left":[0,0,0,0,0,0,0,0,0,0,0,0,0,0,0,0,0,0,0],"id":33,"left_children":[1,3,-1,5,7,9,-1,11,13,15,-1,-1,-1,-1,-1,17,-1,-1,-1],"loss_changes":[1.0940878E1,5.8887167E0,0E0,2.2606664E0,4.747669E0,1.4728813E0,0E0,2.0070515E0,2.6691437E-1,1.3179188E0,0E0,0E0,0E0,0E0,0E0,1.225235E0,0E0,0E0,0E0],"parents":[2147483647,0,0,1,1,3,3,4,4,5,5,7,7,8,8,9,9,15,15],"right_children":[2,4,-1,6,8,10,-1,12,14,16,-1,-1,-1,-1,-1,18,-1,-1,-1],"split_conditions":[3.12664E2,1.2854306E-2,-5.0112147E-2,7E0,9.648416E2,4.415853E-1,-2.55933E-2,2.0376109E-1,1.0225827E3,2.6375151E3,-6.8834014E-3,-1.7991623E-2,4.3214496E-2,-5.4960866E-2,-1.0622148E-2,1.898114E-1,-4.3734293E-3,1.3543657E-2,4.739685E-2],"split_indices":[14,30,0,16,19,33,0,33,18,10,0,0,0,0,0,33,0,0,0],"split_type":[0,0,0,0,0,0,0,0,0,0,0,0,0,0,0,0,0,0,0],"sum_hessian":[3.7786423E1,3.0326868E1,7.459556E0,2.1862438E1,8.46443E0,2.0714024E1,1.1484147E0,3.7528634E0,4.711567E0,1.8775906E1,1.9381179E0,1.5414953E0,2.211368E0,3.7086155E0,1.0029513E0,1.7108913E1,1.6669916E0,4.677884E0,1.2431029E1],"tree_param":{"num_deleted":"0","num_feature":"37","num_nodes":"19","size_leaf_vector":"1"}},{"base_weights":[3.1664323E-2,3.905964E-1,-7.247971E-1,5.126904E-1,-4.09798E-2,1.4510831E-1,-9.3672216E-1,-8.047318E-2,6.8403757E-1,3.0463738E-2,-1.7590301E-2,-1.1089335E-2,-5.1826388E-2,5.112832E-1,-5.1390165E-1,3.043671E-1,9.0879214E-1,-1.7984807E-3,3.9960157E-2,5.91471E-3,-3.8759056E-2,-4.094522E-1,6.172704E-1,5.3967487E-2,1.2928781E-1,5.138253E-3,-3.743698E-2,4.1916918E-2,-1.0222438E-2,3.339732E-2,-2.5267432E-2],"categories":[],"categories_nodes":[],"categories_segments":[],"categories_sizes":[],"default_left":[0,0,0,0,0,0,0,0,0,0,0,0,0,0,0,0,0,0,0,0,0,0,0,0,0,0,0,0,0,0,0],"id":34,"left_children":[1,3,5,7,-1,9,11,13,15,-1,-1,-1,-1,17,19,21,23,-1,-1,-1,-1,25,27,-1,29,-1,-1,-1,-1,-1,-1],"loss_changes":[1.0767064E1,4.385016E0,2.498159E0,2.60361E0,0E0,9.915199E-1,5.004921E-1,1.9269367E0,1.3775892E0,0E0,0E0,0E0,0E0,5.4605126E-1,8.008913E-1,2.2161932E0,1.4100132E0,0E0,0E0,0E0,0E0,6.512876E-1,1.3609853E0,0E0,1.4520023E0,0E0,0E0,0E0,0E0,0E0,0E0],"parents":[2147483647,0,0,1,1,2,2,3,3,5,5,6,6,7,7,8,8,13,13,14,14,15,15,16,16,21,21,22,22,24,24],"right_children":[2,4,6,8,-1,10,12,14,16,-1,-1,-1,-1,18,20,22,24,-1,-1,-1,-1,26,28,-1,30,-1,-1,-1,-1,-1,-1],"split_conditions":[5.020501E0,5.8226055E3,7.0023773E2,4.1380856E1,-4.09798E-2,9.6045557E2,8.727193E1,2.2201004E2,8.9598545E3,3.0463738E-2,-1.7590301E-2,-1.1089335E-2,-5.1826388E-2,4.467358E-2,2.7414018E-2,4.172356E2,-1.7123082E-1,-1.7984807E-3,3.9960157E-2,5.91471E-3,-3.8759056E-2,3.4922045E-2,5.565633E0,5.3967487E-2,2.888621E-2,5.138253E-3,-3.743698E-2,4.1916918E-2,-1.0222438E-2,3.339732E-2,-2.5267432E-2],"split_indices":[14,8,9,21,0,17,14,7,6,0,0,0,0,14,36,9,27,0,0,0,0,36,23,0,36,0,0,0,0,0,0],"split_type":[0,0,0,0,0,0,0,0,0,0,0,0,0,0,0,0,0,0,0,0,0,0,0,0,0,0,0,0,0,0,0],"sum_hessian":[3.7624664E1,2.585408E1,1.1770584E1,2.401579E1,1.8382889E0,2.358316E0,9.412269E0,5.488362E0,1.852743E1,1.112831E0,1.2454848E0,1.5599915E0,7.852277E0,2.2346776E0,3.2536843E0,7.781355E0,1.0746075E1,1.0600902E0,1.1745874E0,1.1003172E0,2.153367E0,2.267665E0,5.51369E0,8.490779E0,2.255296E0,1.1695913E0,1.0980736E0,4.3384557E0,1.1752343E0,1.2000247E0,1.0552713E0],"tree_param":{"num_deleted":"0","num_feature":"37","num_nodes":"31","size_leaf_vector":"1"}},{"base_weights":[-6.2895924E-2,2.3563322E-1,-8.991808E-1,3.6340192E-1,-3.4227118E-2,7.4383863E-3,-5.397163E-2,6.3117033E-1,-1.17113434E-1,-1.5359967E-2,7.676779E-1,-5.149219E-2,2.3568635E-1,-4.110631E-3,8.3764464E-1,-4.188723E-1,5.942304E-1,4.6330597E-2,-2.8063552E-4,1.9397375E-3,-3.689586E-2,4.7161456E-2,-1.5310136E-2],"categories":[],"categories_nodes":[],"categories_segments":[],"categories_sizes":[],"default_left":[0,0,0,0,0,0,0,0,0,0,0,0,0,0,0,0,0,0,0,0,0,0,0],"id":35,"left_children":[1,3,5,7,-1,-1,-1,9,11,-1,13,-1,15,-1,17,19,21,-1,-1,-1,-1,-1,-1],"loss_changes":[9.712218E0,3.632401E0,2.1004057E0,3.418951E0,0E0,0E0,0E0,2.3973885E0,3.5090625E0,0E0,9.681053E-1,0E0,2.1525402E0,0E0,1.061348E0,5.38599E-1,2.073585E0,0E0,0E0,0E0,0E0,0E0,0E0],"parents":[2147483647,0,0,1,1,2,2,3,3,7,7,8,8,10,10,12,12,14,14,15,15,16,16],"right_children":[2,4,6,8,-1,-1,-1,10,12,-1,14,-1,16,-1,18,20,22,-1,-1,-1,-1,-1,-1],"split_conditions":[1.0392492E2,3.338326E3,1.3691138E3,-1.7708378E-1,-3.4227118E-2,7.4383863E-3,-5.397163E-2,2.0726103E1,-6.503023E-3,-1.5359967E-2,-4.9544713E-1,-5.149219E-2,9.5966625E0,-4.110631E-3,2.9218604E2,1.4145349E2,5E0,4.6330597E-2,-2.8063552E-4,1.9397375E-3,-3.689586E-2,4.7161456E-2,-1.5310136E-2],"split_indices":[14,10,8,35,0,0,0,22,26,0,31,0,2,0,1,1,16,0,0,0,0,0,0],"split_type":[0,0,0,0,0,0,0,0,0,0,0,0,0,0,0,0,0,0,0,0,0,0,0],"sum_hessian":[3.7027233E1,2.780717E1,9.220063E0,2.4957676E1,2.8494956E0,1.3706372E0,7.8494263E0,1.5838766E1,9.11891E0,1.8433913E0,1.3995375E1,2.015049E0,7.1038604E0,1.0403409E0,1.2955034E1,2.444687E0,4.6591735E0,1.1639977E1,1.3150568E0,1.3521292E0,1.0925577E0,3.331497E0,1.3276767E0],"tree_param":{"num_deleted":"0","num_feature":"37","num_nodes":"23","size_leaf_vector":"1"}},{"base_weights":[-1.3699763E-2,2.0017372E-1,-4.803708E-2,3.0324164E-1,-3.6431126E-2,-2.6715028E-1,4.8700973E-1,-7.523092E-1,5.2091646E-1,-3.2841366E-2,5.84855E-1,-2.8637738E-3,-4.5752626E-2,3.9165422E-2,-2.9212665E-3,7.694789E-1,-2.4176247E-3,4.375434E-2,-1.0351594E-2,-1.7806236E-2,3.6089506E-2],"categories":[],"categories_nodes":[],"categories_segments":[],"categories_sizes":[],"default_left":[0,0,0,0,0,0,0,0,0,0,0,0,0,0,0,0,0,0,0,0,0],"id":36,"left_children":[1,3,-1,5,-1,7,9,11,13,-1,15,-1,-1,-1,-1,17,19,-1,-1,-1,-1],"loss_changes":[7.917283E0,3.2705617E0,0E0,3.2172036E0,0E0,3.3779325E0,2.9157748E0,5.3139234E-1,5.9368E-1,0E0,2.3277159E0,0E0,0E0,0E0,0E0,1.8670578E0,1.8153819E0,0E0,0E0,0E0,0E0],"parents":[2147483647,0,0,1,1,3,3,5,5,6,6,7,7,8,8,10,10,15,15,16,16],"right_children":[2,4,-1,6,-1,8,10,12,14,-1,16,-1,-1,-1,-1,18,20,-1,-1,-1,-1],"split_conditions":[3.12664E2,5.321755E3,-4.803708E-2,6.336393E3,-3.6431126E-2,1.0066633E3,6.820685E1,9.493337E2,-9.815719E-3,-3.2841366E-2,-1.537538E-1,-2.8637738E-3,-4.5752626E-2,3.9165422E-2,-2.9212665E-3,2.9218604E2,8.773655E0,4.375434E-2,-1.0351594E-2,-1.7806236E-2,3.6089506E-2],"split_indices":[14,8,0,5,0,17,1,18,34,0,35,0,0,0,0,1,20,0,0,0,0],"split_type":[0,0,0,0,0,0,0,0,0,0,0,0,0,0,0,0,0,0,0,0,0],"sum_hessian":[3.7101562E1,3.0901134E1,6.2004285E0,2.8430496E1,2.4706366E0,6.8039093E0,2.1626587E1,4.2472377E0,2.5566716E0,1.2459526E0,2.0380634E1,1.0739715E0,3.1732662E0,1.5292484E0,1.0274231E0,1.5282856E1,5.0977793E0,1.3894315E1,1.3885411E0,3.7757478E0,1.3220316E0],"tree_param":{"num_deleted":"0","num_feature":"37","num_nodes":"21","size_leaf_vector":"1"}},{"base_weights":[2.7567461E-2,2.6558003E-1,-8.9217824E-1,3.679058E-1,-4.0310625E-2,-4.8266135E-2,-1.1230207E-2,7.244474E-1,1.1887729E-1,-1.9545176E-4,8.662464E-1,-2.2935733E-1,5.278395E-1,1.3370353E-1,5.2715745E-2,1.1172413E-1,-5.173966E-2,4.5865186E-2,-3.9691845E-1,-1.4134268E-2,2.3934733E-2,-1.789043E-2,3.8033735E-2,-2.9661715E-2,-3.937665E-4],"categories":[],"categories_nodes":[],"categories_segments":[],"categories_sizes":[],"default_left":[0,0,0,0,0,0,0,0,0,0,0,0,0,0,0,0,0,0,0,0,0,0,0,0,0],"id":37,"left_children":[1,3,5,7,-1,-1,-1,9,11,-1,13,15,17,19,-1,21,-1,-1,23,-1,-1,-1,-1,-1,-1],"loss_changes":[8.116315E0,3.516134E0,1.4366722E-1,2.3497365E0,0E0,0E0,0E0,1.1592464E0,2.605083E0,0E0,1.1303058E0,2.8976045E0,3.3687508E0,5.766765E-1,0E0,2.7090437E0,0E0,0E0,2.3053876E-1,0E0,0E0,0E0,0E0,0E0,0E0],"parents":[2147483647,0,0,1,1,2,2,3,3,7,7,8,8,10,10,11,11,12,12,13,13,15,15,18,18],"right_children":[2,4,6,8,-1,-1,-1,10,12,-1,14,16,18,20,-1,22,-1,-1,24,-1,-1,-1,-1,-1,-1],"split_conditions":[2.177719E2,5.0864575E3,1.05471886E2,3.168661E2,-4.0310625E-2,-4.8266135E-2,-1.1230207E-2,-3.893831E-1,4.4483057E2,-1.9545176E-4,1.4705476E-1,7.694735E0,2.4877455E0,-1.9228427E-1,5.2715745E-2,4.835924E1,-5.173966E-2,4.5865186E-2,8.752816E3,-1.4134268E-2,2.3934733E-2,-1.789043E-2,3.8033735E-2,-2.9661715E-2,-3.937665E-4],"split_indices":[14,9,3,13,0,0,0,27,11,0,33,20,14,27,0,21,0,0,5,0,0,0,0,0,0],"split_type":[0,0,0,0,0,0,0,0,0,0,0,0,0,0,0,0,0,0,0,0,0,0,0,0,0],"sum_hessian":[3.5022102E1,2.8395905E1,6.6261973E0,2.6529188E1,1.8667161E0,5.556401E0,1.0697966E0,1.0108003E1,1.6421185E1,1.7941555E0,8.313848E0,9.093077E0,7.3281083E0,2.0587885E0,6.255059E0,6.9842834E0,2.1087935E0,5.1697354E0,2.1583729E0,1.0015622E0,1.0572264E0,4.3036823E0,2.6806011E0,1.0685903E0,1.0897827E0],"tree_param":{"num_deleted":"0","num_feature":"37","num_nodes":"25","size_leaf_vector":"1"}},{"base_weights":[-2.9823292E-2,1.8364175E-1,-4.7381636E-2,2.8046674E-1,-3.9606333E-2,-4.6168584E-1,4.2084205E-1,-4.1434564E-2,6.2904106E-3,-1.8197541E-1,5.7847786E-1,3.385879E-1,-4.1042153E-2,-2.4066833E-1,6.924062E-1,-1.3165893E-2,3.6360893E-2,-3.2417893E-2,1.3590208E-2,3.9568406E-2,-1.5126461E-2],"categories":[],"categories_nodes":[],"categories_segments":[],"categories_sizes":[],"default_left":[0,0,0,0,0,0,0,0,0,0,0,0,0,0,0,0,0,0,0,0,0],"id":38,"left_children":[1,3,-1,5,-1,7,9,-1,-1,11,13,15,-1,17,19,-1,-1,-1,-1,-1,-1],"loss_changes":[7.2375345E0,3.05587E0,0E0,3.1195314E0,0E0,1.1747687E0,2.4041257E0,0E0,0E0,2.1962647E0,1.9813194E0,1.1013325E0,0E0,8.276048E-1,1.9473639E0,0E0,0E0,0E0,0E0,0E0,0E0],"parents":[2147483647,0,0,1,1,3,3,5,5,6,6,9,9,10,10,11,11,13,13,14,14],"right_children":[2,4,-1,6,-1,8,10,-1,-1,12,14,16,-1,18,20,-1,-1,-1,-1,-1,-1],"split_conditions":[3.12664E2,5.8226055E3,-4.7381636E-2,5.8607244E0,-3.9606333E-2,1.4388676E4,6.336393E3,-4.1434564E-2,6.2904106E-3,9.1408026E2,-6.5761744E-3,9.608232E2,-4.1042153E-2,9.589726E2,2.9437616E2,-1.3165893E-2,3.6360893E-2,-3.2417893E-2,1.3590208E-2,3.9568406E-2,-1.5126461E-2],"split_indices":[14,8,0,24,0,4,5,0,0,12,26,8,0,17,1,0,0,0,0,0,0],"split_type":[0,0,0,0,0,0,0,0,0,0,0,0,0,0,0,0,0,0,0,0,0],"sum_hessian":[3.5013992E1,2.9047186E1,5.9668055E0,2.708261E1,1.9645768E0,3.932362E0,2.3150248E1,2.178149E0,1.754213E0,4.7537017E0,1.8396545E1,2.8697402E0,1.8839611E0,2.0996692E0,1.6296877E1,1.2423369E0,1.6274035E0,1.0325761E0,1.0670931E0,1.5017777E1,1.279099E0],"tree_param":{"num_deleted":"0","num_feature":"37","num_nodes":"21","size_leaf_vector":"1"}},{"base_weights":[1.2048195E-2,2.2286373E-1,-4.6403047E-2,3.1859192E-1,-4.121278E-2,6.3017887E-1,-1.1461207E-3,-2.659665E-2,7.674116E-1,-3.9075854E-1,4.723701E-1,8.9762414E-1,-1.6979182E-2,4.1991362E-1,-9.651933E-1,4.3543633E-2,-2.1940133E-2,5.00594E-3,4.907782E-2,-1.1366011E-2,3.702021E-2,-5.415669E-2,-1.2045554E-2],"categories":[],"categories_nodes":[],"categories_segments":[],"categories_sizes":[],"default_left":[0,0,0,0,0,0,0,0,0,0,0,0,0,0,0,0,0,0,0,0,0,0,0],"id":39,"left_children":[1,3,-1,5,-1,7,9,-1,11,13,15,17,-1,19,21,-1,-1,-1,-1,-1,-1,-1,-1],"loss_changes":[6.816615E0,3.072856E0,0E0,2.6434658E0,0E0,2.550819E0,2.7745721E0,0E0,2.1006603E0,4.258671E0,2.84838E0,6.536732E-1,0E0,1.0273317E0,1.6545105E-1,0E0,0E0,0E0,0E0,0E0,0E0,0E0,0E0],"parents":[2147483647,0,0,1,1,3,3,5,5,6,6,8,8,9,9,10,10,11,11,13,13,14,14],"right_children":[2,4,-1,6,-1,8,10,-1,12,14,16,18,-1,20,22,-1,-1,-1,-1,-1,-1,-1,-1],"split_conditions":[3.12664E2,7E0,-4.6403047E-2,2.5592203E2,-4.121278E-2,9.856488E-2,4.0799734E2,-2.659665E-2,8.3243795E-2,3.7758473E-2,-1.4595091E-1,7.021853E1,-1.6979182E-2,1.4714034E-1,1.5642104E4,4.3543633E-2,-2.1940133E-2,5.00594E-3,4.907782E-2,-1.1366011E-2,3.702021E-2,-5.415669E-2,-1.2045554E-2],"split_indices":[14,16,0,15,0,25,15,0,28,32,31,1,0,33,4,0,0,0,0,0,0,0,0],"split_type":[0,0,0,0,0,0,0,0,0,0,0,0,0,0,0,0,0,0,0,0,0,0,0],"sum_hessian":[3.2386395E1,2.7086037E1,5.3003554E0,2.546345E1,1.6225873E0,1.2420216E1,1.3043235E1,1.0003194E0,1.1419896E1,7.2630434E0,5.780191E0,1.0395297E1,1.0245997E0,3.1164854E0,4.146558E0,4.0598254E0,1.7203659E0,1.2100146E0,9.185282E0,1.1180606E0,1.9984249E0,3.1279454E0,1.0186126E0],"tree_param":{"num_deleted":"0","num_feature":"37","num_nodes":"23","size_leaf_vector":"1"}},{"base_weights":[-5.7645053E-2,1.420241E-1,-4.6443492E-2,-2.960093E-1,3.751056E-1,4.2841986E-1,-5.9467727E-1,6.582173E-1,4.5654457E-2,-4.5131473E-3,3.7181146E-2,-7.792947E-1,5.881583E-3,-1.4061059E-2,8.9161533E-1,-2.0361598E-1,3.8704462E-2,-3.3815098E-3,-4.6915676E-2,4.9890265E-2,6.8422616E-3,5.503417E-2,-4.058839E-2,1.8450063E-2,-2.3032987E-2],"categories":[],"categories_nodes":[],"categories_segments":[],"categories_sizes":[],"default_left":[0,0,0,0,0,0,0,0,0,0,0,0,0,0,0,0,0,0,0,0,0,0,0,0,0],"id":40,"left_children":[1,3,-1,5,7,9,11,13,15,-1,-1,17,-1,-1,19,21,-1,-1,-1,-1,-1,23,-1,-1,-1],"loss_changes":[6.0331516E0,3.0134068E0,0E0,2.5097191E0,1.7355709E0,6.641311E-1,1.1243708E0,2.4781332E0,1.9563395E0,0E0,0E0,6.438432E-1,0E0,0E0,5.223923E-1,1.3324323E0,0E0,0E0,0E0,0E0,0E0,1.243354E0,0E0,0E0,0E0],"parents":[2147483647,0,0,1,1,3,3,4,4,5,5,6,6,7,7,8,8,11,11,14,14,15,15,21,21],"right_children":[2,4,-1,6,8,10,12,14,16,-1,-1,18,-1,-1,20,22,-1,-1,-1,-1,-1,24,-1,-1,-1],"split_conditions":[2.4206735E2,4.4025387E1,-4.6443492E-2,2.0129243E2,2.5592203E2,3.5504406E1,8.535803E1,1.7139386E2,6.6216223E2,-4.5131473E-3,3.7181146E-2,2.7978493E-2,5.881583E-3,-1.4061059E-2,3.9682065E2,9.914806E0,3.8704462E-2,-3.3815098E-3,-4.6915676E-2,4.9890265E-2,6.8422616E-3,-1.7935726E-1,-4.058839E-2,1.8450063E-2,-2.3032987E-2],"split_indices":[14,21,0,7,15,21,3,9,11,0,0,32,0,0,13,20,0,0,0,0,0,35,0,0,0],"split_type":[0,0,0,0,0,0,0,0,0,0,0,0,0,0,0,0,0,0,0,0,0,0,0,0,0],"sum_hessian":[3.287832E1,2.7419714E1,5.458603E0,9.414334E0,1.800538E1,2.6116858E0,6.8026485E0,9.130698E0,8.874682E0,1.2449563E0,1.3667295E0,5.3389015E0,1.4637471E0,1.7677345E0,7.3629637E0,7.1385994E0,1.7360827E0,1.2468762E0,4.0920253E0,6.1609244E0,1.2020391E0,5.6350474E0,1.5035523E0,3.6914504E0,1.943597E0],"tree_param":{"num_deleted":"0","num_feature":"37","num_nodes":"25","size_leaf_vector":"1"}},{"base_weights":[-2.3654407E-2,1.8186896E-1,-4.641536E-2,4.0586796E-1,-3.535582E-1,-9.8500345E-3,6.550576E-1,2.436673E-1,-7.9709315E-1,-3.8219023E-1,3.4489274E-2,8.03361E-1,-7.970969E-3,3.685509E-2,-2.4426036E-2,-5.2207816E-2,5.842181E-3,1.8424617E-1,-5.6177445E-2,2.6016968E-4,8.91117E-1,3.659486E-2,-2.7847875E-2,4.996481E-2,6.952566E-3],"categories":[],"categories_nodes":[],"categories_segments":[],"categories_sizes":[],"default_left":[0,0,0,0,0,0,0,0,0,0,0,0,0,0,0,0,0,0,0,0,0,0,0,0,0],"id":41,"left_children":[1,3,-1,5,7,9,11,13,15,17,-1,19,-1,-1,-1,-1,-1,21,-1,-1,23,-1,-1,-1,-1],"loss_changes":[6.639348E0,3.6405067E0,0E0,2.191758E0,2.615621E0,2.5667078E0,1.7265425E0,2.0400238E0,1.3680391E0,2.9168267E0,0E0,7.7970266E-1,0E0,0E0,0E0,0E0,0E0,2.2347448E0,0E0,0E0,6.7844296E-1,0E0,0E0,0E0,0E0],"parents":[2147483647,0,0,1,1,3,3,4,4,5,5,6,6,7,7,8,8,9,9,11,11,17,17,20,20],"right_children":[2,4,-1,6,8,10,12,14,16,18,-1,20,-1,-1,-1,-1,-1,22,-1,-1,24,-1,-1,-1,-1],"split_conditions":[3.12664E2,1.2854306E-2,-4.641536E-2,1.8790245E-1,9.648416E2,1.2071143E3,4.4600916E-1,5.327714E0,2.5798796E1,2.7587964E2,3.4489274E-2,1.5232752E-1,-7.970969E-3,3.685509E-2,-2.4426036E-2,-5.2207816E-2,5.842181E-3,3.4787183E2,-5.6177445E-2,2.6016968E-4,2.8155225E2,3.659486E-2,-2.7847875E-2,4.996481E-2,6.952566E-3],"split_indices":[14,30,0,33,19,9,33,23,2,11,0,29,0,0,0,0,0,0,0,0,1,0,0,0,0],"split_type":[0,0,0,0,0,0,0,0,0,0,0,0,0,0,0,0,0,0,0,0,0,0,0,0,0],"sum_hessian":[3.3761192E1,2.8153135E1,5.6080556E0,2.0032906E1,8.12023E0,7.852718E0,1.2180187E1,3.6429834E0,4.4772463E0,5.4306135E0,2.4221046E0,1.0325925E1,1.8542616E0,2.1804717E0,1.4625119E0,3.4209309E0,1.0563158E0,3.496836E0,1.9337775E0,1.139074E0,9.1868515E0,2.0259647E0,1.4708712E0,7.732548E0,1.4543028E0],"tree_param":{"num_deleted":"0","num_feature":"37","num_nodes":"25","size_leaf_vector":"1"}},{"base_weights":[-1.6786328E-2,4.663166E-1,-2.5488576E-1,-3.650925E-1,7.109407E-1,-4.6419555E-1,3.8327646E-1,9.076743E-3,-4.026675E-2,-8.92174E-3,8.6088514E-1,-7.8938156E-1,-1.8327823E-1,7.363389E-1,-2.387221E-2,5.0634332E-2,5.404369E-3,-7.806609E-3,-4.6352282E-2,1.2331563E-1,-6.8335503E-1,4.2719133E-2,7.3220427E-3,-3.487397E-1,5.2070177E-1,-4.589376E-2,-5.8227167E-3,-4.595254E-2,2.0814294E-2,2.3036131E-3,3.9916787E-2],"categories":[],"categories_nodes":[],"categories_segments":[],"categories_sizes":[],"default_left":[0,0,0,0,0,0,0,0,0,0,0,0,0,0,0,0,0,0,0,0,0,0,0,0,0,0,0,0,0,0,0],"id":42,"left_children":[1,3,5,7,9,11,13,-1,-1,-1,15,17,19,21,-1,-1,-1,-1,-1,23,25,-1,-1,27,29,-1,-1,-1,-1,-1,-1],"loss_changes":[4.1455045E0,2.683813E0,3.4007819E0,9.603758E-1,1.4333706E0,1.5473032E0,2.327483E0,0E0,0E0,0E0,8.334789E-1,5.6929255E-1,1.824437E0,2.1348691E-1,0E0,0E0,0E0,0E0,0E0,1.6555358E0,4.7640896E-1,0E0,0E0,2.2089493E0,5.706446E-1,0E0,0E0,0E0,0E0,0E0,0E0],"parents":[2147483647,0,0,1,1,2,2,3,3,4,4,5,5,6,6,10,10,11,11,12,12,13,13,19,19,20,20,23,23,24,24],"right_children":[2,4,6,8,10,12,14,-1,-1,-1,16,18,20,22,-1,-1,-1,-1,-1,24,26,-1,-1,28,30,-1,-1,-1,-1,-1,-1],"split_conditions":[3.2656174E2,1.3496733E-1,5.2127113E1,3.3081232E2,1.6753503E2,2.6828333E1,5.860958E-2,9.076743E-3,-4.026675E-2,-8.92174E-3,2.9742397E3,6.172089E-1,5.0178113E0,1.66355E4,-2.387221E-2,5.0634332E-2,5.404369E-3,-7.806609E-3,-4.6352282E-2,-2.214597E-1,2.9611486E-1,4.2719133E-2,7.3220427E-3,3.2396527E2,1.8790245E-1,-4.589376E-2,-5.8227167E-3,-4.595254E-2,2.0814294E-2,2.3036131E-3,3.9916787E-2],"split_indices":[13,29,21,0,9,22,32,0,0,0,8,10,23,5,0,0,0,0,0,35,29,0,0,15,33,0,0,0,0,0,0],"split_type":[0,0,0,0,0,0,0,0,0,0,0,0,0,0,0,0,0,0,0,0,0,0,0,0,0,0,0,0,0,0,0],"sum_hessian":[3.4024628E1,1.0902664E1,2.3121962E1,2.3573494E0,8.545315E0,1.7628345E1,5.4936166E0,1.3036299E0,1.0537195E0,1.1958128E0,7.3495016E0,7.3149953E0,1.0313351E1,4.006359E0,1.4872575E0,5.817825E0,1.5316768E0,1.7003316E0,5.614664E0,6.8481827E0,3.4651675E0,2.9506083E0,1.055751E0,3.1744738E0,3.673709E0,2.0007355E0,1.4644319E0,1.7108258E0,1.4636481E0,1.7994397E0,1.8742694E0],"tree_param":{"num_deleted":"0","num_feature":"37","num_nodes":"31","size_leaf_vector":"1"}},{"base_weights":[3.4400973E-2,2.2095168E-1,-4.4604275E-2,-2.1633136E-1,4.3435183E-1,-6.2743604E-1,3.8744414E-1,-2.4772441E-1,5.769106E-1,-3.885288E-2,-1.0808264E-3,4.1725796E-2,-1.5657099E-2,-3.7397426E-2,2.163533E-2,1.8457471E-1,8.1330407E-1,5.207731E-1,-4.467417E-1,5.0551217E-2,1.834064E-1,-1.04269665E-2,3.8051125E-2,1.9569003E-3,-3.5416402E-2,3.305695E-2,-2.000986E-2],"categories":[],"categories_nodes":[],"categories_segments":[],"categories_sizes":[],"default_left":[0,0,0,0,0,0,0,0,0,0,0,0,0,0,0,0,0,0,0,0,0,0,0,0,0,0,0],"id":43,"left_children":[1,3,-1,5,7,9,11,13,15,-1,-1,-1,-1,-1,-1,17,19,21,23,-1,25,-1,-1,-1,-1,-1,-1],"loss_changes":[5.732304E0,2.6624093E0,0E0,2.64608E0,1.9770961E0,5.3225255E-1,1.6841475E0,1.6687266E0,1.3133326E0,0E0,0E0,0E0,0E0,0E0,0E0,1.7791197E0,9.987531E-1,1.0795811E0,4.2315477E-1,0E0,1.2508612E0,0E0,0E0,0E0,0E0,0E0,0E0],"parents":[2147483647,0,0,1,1,3,3,4,4,5,5,6,6,7,7,8,8,15,15,16,16,17,17,18,18,20,20],"right_children":[2,4,-1,6,8,10,12,14,16,-1,-1,-1,-1,-1,-1,18,20,22,24,-1,26,-1,-1,-1,-1,-1,-1],"split_conditions":[3.12664E2,2.6828333E1,-4.4604275E-2,2.2468994E4,-6.214597E-3,2.3818867E1,2.4338932E4,2.2920432E2,9.131152E3,-3.885288E-2,-1.0808264E-3,4.1725796E-2,-1.5657099E-2,-3.7397426E-2,2.163533E-2,4.0890444E-2,8.406664E0,4.5963825E1,9.598857E0,5.0551217E-2,2.2905276E2,-1.04269665E-2,3.8051125E-2,1.9569003E-3,-3.5416402E-2,3.305695E-2,-2.000986E-2],"split_indices":[14,22,0,5,26,22,5,1,6,0,0,0,0,0,0,28,20,21,20,0,1,0,0,0,0,0,0],"split_type":[0,0,0,0,0,0,0,0,0,0,0,0,0,0,0,0,0,0,0,0,0,0,0,0,0,0,0],"sum_hessian":[3.1064415E1,2.6500729E1,4.5636873E0,8.671391E0,1.7829338E1,5.145349E0,3.5260417E0,2.9425912E0,1.4886746E1,3.8863585E0,1.2589904E0,2.0444822E0,1.4815595E0,1.647147E0,1.2954441E0,6.282667E0,8.604079E0,4.2241154E0,2.0585518E0,6.0759478E0,2.528132E0,1.0690925E0,3.1550229E0,1.0046439E0,1.0539078E0,1.3265275E0,1.2016044E0],"tree_param":{"num_deleted":"0","num_feature":"37","num_nodes":"27","size_leaf_vector":"1"}},{"base_weights":[-4.4444006E-2,2.1472032E-1,-6.5695566E-1,3.6120665E-1,-3.7719976E-2,-8.2220155E-1,1.7366005E-2,5.434853E-1,-1.2708752E-1,-9.369675E-1,-8.127312E-3,-1.6996168E-2,6.972238E-1,-4.3836212E-1,3.20477E-2,-9.171489E-3,-5.2805413E-2,9.0063995E-1,-0E0,-3.1152818E-2,-4.0808093E-2,8.8156725E-4,5.1205676E-2,-2.45914E-2,1.9811975E-2,-3.0127237E-2,3.2622404E-2],"categories":[],"categories_nodes":[],"categories_segments":[],"categories_sizes":[],"default_left":[0,0,0,0,0,0,0,0,0,0,0,0,0,0,0,0,0,0,0,0,0,0,0,0,0,0,0],"id":44,"left_children":[1,3,5,7,-1,9,-1,11,13,15,-1,-1,17,19,-1,-1,-1,21,23,25,-1,-1,-1,-1,-1,-1,-1],"loss_changes":[5.077125E0,3.4730268E0,1.8659697E0,1.8794987E0,0E0,4.7707176E-1,0E0,2.2753248E0,1.7879516E0,4.207306E-1,0E0,0E0,1.8572502E0,7.4988717E-1,0E0,0E0,0E0,1.0770197E0,9.663613E-1,1.7614385E0,0E0,0E0,0E0,0E0,0E0,0E0,0E0],"parents":[2147483647,0,0,1,1,2,2,3,3,5,5,7,7,8,8,9,9,12,12,13,13,17,17,18,18,19,19],"right_children":[2,4,6,8,-1,10,-1,12,14,16,-1,-1,18,20,-1,-1,-1,22,24,26,-1,-1,-1,-1,-1,-1,-1],"split_conditions":[1.2854306E-2,3.12664E2,5.157559E-1,-6.9048726E-3,-3.7719976E-2,4.9077783E2,1.7366005E-2,2.7651834E-1,5.5307164E-3,2.8177692E2,-8.127312E-3,-1.6996168E-2,-1.6366456E-1,-2.3004565E-1,3.20477E-2,-9.171489E-3,-5.2805413E-2,5.8607244E0,9.425757E2,-3.2070133E-1,-4.0808093E-2,8.8156725E-4,5.1205676E-2,-2.45914E-2,1.9811975E-2,-3.0127237E-2,3.2622404E-2],"split_indices":[30,14,33,34,0,15,0,23,30,0,0,0,35,31,0,0,0,24,19,27,0,0,0,0,0,0,0],"split_type":[0,0,0,0,0,0,0,0,0,0,0,0,0,0,0,0,0,0,0,0,0,0,0,0,0,0,0],"sum_hessian":[3.006718E1,2.1572569E1,8.494612E0,1.929383E1,2.278737E0,7.458611E0,1.0360007E0,1.3981889E1,5.3119416E0,5.982274E0,1.4763367E0,1.8834072E0,1.2098482E1,4.094696E0,1.2172458E0,1.1748922E0,4.807382E0,9.139521E0,2.9589608E0,2.5043373E0,1.5903586E0,1.2713528E0,7.8681684E0,1.2120175E0,1.7469434E0,1.4366802E0,1.0676571E0],"tree_param":{"num_deleted":"0","num_feature":"37","num_nodes":"27","size_leaf_vector":"1"}},{"base_weights":[-4.0259745E-2,1.2313706E-1,-4.3686654E-2,-5.546764E-1,2.6467603E-1,-4.7473595E-2,1.9545984E-2,-1.0676154E-1,5.660322E-1,2.8079373E-1,-6.5365595E-1,-1.9799735E-2,6.8897533E-1,-2.1274399E-2,6.03316E-1,8.8482146E-4,-4.1735947E-2,4.4523053E-2,4.548054E-2,-9.4439415E-3,4.2176656E-2,-3.461474E-2,2.9676735E-2],"categories":[],"categories_nodes":[],"categories_segments":[],"categories_sizes":[],"default_left":[0,0,0,0,0,0,0,0,0,0,0,0,0,0,0,0,0,0,0,0,0,0,0],"id":45,"left_children":[1,3,-1,5,7,-1,-1,9,11,13,15,-1,17,-1,19,-1,-1,21,-1,-1,-1,-1,-1],"loss_changes":[4.3582544E0,2.72619E0,0E0,2.2285917E0,2.6345925E0,0E0,0E0,2.5418034E0,1.7952471E0,1.8963788E0,6.2081766E-1,0E0,1.6228895E0,0E0,1.1857802E0,0E0,0E0,2.05379E0,0E0,0E0,0E0,0E0,0E0],"parents":[2147483647,0,0,1,1,3,3,4,4,7,7,8,8,9,9,10,10,12,12,14,14,17,17],"right_children":[2,4,-1,6,8,-1,-1,10,12,14,16,-1,18,-1,20,-1,-1,22,-1,-1,-1,-1,-1],"split_conditions":[3.12664E2,-6.214597E-3,-4.3686654E-2,2.4632954E2,2.9033129E1,-4.7473595E-2,1.9545984E-2,3.7931573E2,4.809194E0,7.274722E3,1.8119235E-1,-1.9799735E-2,9.997033E-1,-2.1274399E-2,1.1416005E-1,8.8482146E-4,-4.1735947E-2,2.955929E-1,4.548054E-2,-9.4439415E-3,4.2176656E-2,-3.461474E-2,2.9676735E-2],"split_indices":[14,26,0,1,22,0,0,7,24,4,25,0,2,0,33,0,0,25,0,0,0,0,0],"split_type":[0,0,0,0,0,0,0,0,0,0,0,0,0,0,0,0,0,0,0,0,0,0,0],"sum_hessian":[3.0156887E1,2.5916412E1,4.240474E0,3.9604995E0,2.1955912E1,2.7985532E0,1.1619463E0,1.01088085E1,1.1847103E1,6.19033E0,3.918479E0,1.0815685E0,1.0765535E1,1.8308188E0,4.359511E0,1.0122508E0,2.906228E0,3.063755E0,7.70178E0,1.0543926E0,3.3051186E0,1.1889243E0,1.8748307E0],"tree_param":{"num_deleted":"0","num_feature":"37","num_nodes":"23","size_leaf_vector":"1"}},{"base_weights":[-6.107518E-2,1.0986482E-1,-4.430276E-2,3.050145E-1,-3.7130496E-1,-3.3394262E-1,4.3649685E-1,-6.513427E-1,2.7368153E-2,-3.4225047E-2,1.7551702E-2,-1.48545E-1,6.767691E-1,2.474606E-3,-8.519173E-1,1.7604847E-1,-3.504968E-2,-6.928994E-3,8.277956E-1,-7.11258E-3,-5.033631E-2,3.0805374E-2,-2.107793E-2,4.584266E-2,7.4963006E-3],"categories":[],"categories_nodes":[],"categories_segments":[],"categories_sizes":[],"default_left":[0,0,0,0,0,0,0,0,0,0,0,0,0,0,0,0,0,0,0,0,0,0,0,0,0],"id":46,"left_children":[1,3,-1,5,7,9,11,13,-1,-1,-1,15,17,-1,19,21,-1,-1,23,-1,-1,-1,-1,-1,-1],"loss_changes":[4.6588006E0,2.7068534E0,0E0,1.8454849E0,2.5206535E0,1.2051375E0,2.5257835E0,1.0213597E0,0E0,0E0,0E0,1.1722745E0,1.648005E0,0E0,4.426825E-1,1.4329334E0,0E0,0E0,4.9252558E-1,0E0,0E0,0E0,0E0,0E0,0E0],"parents":[2147483647,0,0,1,1,3,3,4,4,5,5,6,6,7,7,11,11,12,12,14,14,15,15,18,18],"right_children":[2,4,-1,6,8,10,12,14,-1,-1,-1,16,18,-1,20,22,-1,-1,24,-1,-1,-1,-1,-1,-1],"split_conditions":[3.12664E2,1.2854306E-2,-4.430276E-2,1.3496733E-1,4.5015514E-1,8.393697E-2,-2.872786E-1,1.9169731E2,2.7368153E-2,-3.4225047E-2,1.7551702E-2,4.5550764E-1,5.0324365E3,2.474606E-3,3.5459294E3,8.773655E0,-3.504968E-2,-6.928994E-3,-1.3235295E-1,-7.11258E-3,-5.033631E-2,3.0805374E-2,-2.107793E-2,4.584266E-2,7.4963006E-3],"split_indices":[14,30,0,29,33,14,35,7,0,0,0,14,6,0,6,20,0,0,31,0,0,0,0,0,0],"split_type":[0,0,0,0,0,0,0,0,0,0,0,0,0,0,0,0,0,0,0,0,0,0,0,0,0],"sum_hessian":[3.1290628E1,2.66279E1,4.662729E0,1.9219759E1,7.4081416E0,3.0042586E0,1.62155E1,5.9088297E0,1.4993119E0,1.997347E0,1.0069116E0,4.8198147E0,1.1395685E1,1.4713001E0,4.4375296E0,3.453768E0,1.3660464E0,1.7834665E0,9.612219E0,1.1498652E0,3.2876644E0,1.9808838E0,1.4728843E0,8.171372E0,1.4408463E0],"tree_param":{"num_deleted":"0","num_feature":"37","num_nodes":"25","size_leaf_vector":"1"}},{"base_weights":[-5.224795E-2,1.2025688E-1,-4.3576375E-2,-1.6700844E-1,5.861626E-1,-3.1812757E-1,3.342677E-2,-5.3162123E-3,7.626379E-1,2.3914693E-2,-4.6052402E-1,4.821875E-2,2.0706284E-1,2.0247193E-2,-5.717991E-1,2.6795616E-2,-1.3614829E-2,-7.91496E-3,-4.537506E-2],"categories":[],"categories_nodes":[],"categories_segments":[],"categories_sizes":[],"default_left":[0,0,0,0,0,0,0,0,0,0,0,0,0,0,0,0,0,0,0],"id":47,"left_children":[1,3,-1,5,7,9,-1,-1,11,-1,13,-1,15,-1,17,-1,-1,-1,-1],"loss_changes":[4.3454504E0,3.5298438E0,0E0,2.3061907E0,1.3101225E0,1.8930602E0,0E0,0E0,6.970787E-1,0E0,1.4884996E0,0E0,6.917563E-1,0E0,1.5078766E0,0E0,0E0,0E0,0E0],"parents":[2147483647,0,0,1,1,3,3,4,4,5,5,8,8,10,10,12,12,14,14],"right_children":[2,4,-1,6,8,10,-1,-1,12,-1,14,-1,16,-1,18,-1,-1,-1,-1],"split_conditions":[3.12664E2,2.6377244E0,-4.3576375E-2,6.3623737E2,2.747676E1,9.53085E2,3.342677E-2,-5.3162123E-3,5.688293E0,2.3914693E-2,-4.46926E-1,4.821875E-2,-6.9048726E-3,2.0247193E-2,2.143121E-1,2.6795616E-2,-1.3614829E-2,-7.91496E-3,-4.537506E-2],"split_indices":[14,23,0,11,22,17,0,0,23,0,35,0,34,0,25,0,0,0,0],"split_type":[0,0,0,0,0,0,0,0,0,0,0,0,0,0,0,0,0,0,0],"sum_hessian":[2.8952171E1,2.461114E1,4.341031E0,1.5607834E1,9.003306E0,1.3751854E1,1.8559792E0,1.8976802E0,7.1056266E0,1.7173916E0,1.2034463E1,4.659781E0,2.4458451E0,1.0601226E0,1.097434E1,1.3930631E0,1.052782E0,5.5900946E0,5.384246E0],"tree_param":{"num_deleted":"0","num_feature":"37","num_nodes":"19","size_leaf_vector":"1"}},{"base_weights":[2.0852009E-2,1.8471001E-1,-4.2685326E-2,-1.5591383E-1,4.873074E-1,2.0588365E-1,-3.807762E-2,7.912661E-1,6.495588E-2,-5.2919513E-1,5.9598666E-1,-5.037748E-3,4.702687E-2,3.4221467E-2,-4.734549E-1,-4.0945277E-2,5.6656455E-3,-1.2986018E-2,4.2540174E-2,5.3527965E-3,-4.1273214E-2],"categories":[],"categories_nodes":[],"categories_segments":[],"categories_sizes":[],"default_left":[0,0,0,0,0,0,0,0,0,0,0,0,0,0,0,0,0,0,0,0,0],"id":48,"left_children":[1,3,-1,5,7,9,-1,11,13,15,17,-1,-1,-1,19,-1,-1,-1,-1,-1,-1],"loss_changes":[4.503333E0,2.8014948E0,0E0,3.0474236E0,1.7686472E0,2.9024744E0,0E0,1.1923165E0,2.6823096E0,7.788718E-1,1.6162121E0,0E0,0E0,0E0,9.868851E-1,0E0,0E0,0E0,0E0,0E0,0E0],"parents":[2147483647,0,0,1,1,3,3,4,4,5,5,7,7,8,8,9,9,10,10,14,14],"right_children":[2,4,-1,6,8,10,-1,12,14,16,18,-1,-1,-1,20,-1,-1,-1,-1,-1,-1],"split_conditions":[3.12664E2,2.9033129E1,-4.2685326E-2,3.7931573E2,3.363428E1,6.665956E3,-3.807762E-2,-2.5933351E-2,1.00275525E3,8.024061E-1,1.11144684E-1,-5.037748E-3,4.702687E-2,3.4221467E-2,3.5794597E-2,-4.0945277E-2,5.6656455E-3,-1.2986018E-2,4.2540174E-2,5.3527965E-3,-4.1273214E-2],"split_indices":[14,22,0,7,22,5,0,30,12,14,33,0,0,0,36,0,0,0,0,0,0],"split_type":[0,0,0,0,0,0,0,0,0,0,0,0,0,0,0,0,0,0,0,0,0],"sum_hessian":[2.937147E1,2.5410725E1,3.960744E0,1.2166736E1,1.3243989E1,8.019547E0,4.147188E0,7.179721E0,6.0642686E0,2.64789E0,5.3716574E0,1.066216E0,6.113505E0,2.7023852E0,3.3618832E0,1.646495E0,1.001395E0,1.2191408E0,4.152517E0,1.5210049E0,1.8408784E0],"tree_param":{"num_deleted":"0","num_feature":"37","num_nodes":"21","size_leaf_vector":"1"}},{"base_weights":[-7.001693E-2,-3.6132923E-1,2.237372E-1,-8.065753E-1,-4.1391026E-2,6.520889E-1,-1.4495838E-1,-4.5805715E-2,-6.2829168E-3,2.5630093E-1,-3.6789354E-2,-1.105289E-2,8.399904E-1,-5.596604E-1,5.060268E-1,4.7065988E-1,-2.9974738E-2,4.79127E-2,5.7838415E-3,-8.721131E-1,3.4181595E-2,-4.358647E-3,3.7028067E-2,-7.20156E-3,6.8848807E-1,-1.9445218E-3,-5.6548942E-2,-2.4212424E-2,2.6328076E-2,8.110666E-3,3.9800283E-2],"categories":[],"categories_nodes":[],"categories_segments":[],"categories_sizes":[],"default_left":[0,0,0,0,0,0,0,0,0,0,0,0,0,0,0,0,0,0,0,0,0,0,0,0,0,0,0,0,0,0,0],"id":49,"left_children":[1,3,5,7,9,11,13,-1,-1,15,-1,-1,17,19,21,23,-1,-1,-1,25,27,-1,-1,-1,29,-1,-1,-1,-1,-1,-1],"loss_changes":[2.7228916E0,2.2221193E0,2.6210103E0,3.650999E-1,2.3256586E0,1.4354222E0,2.8175426E0,0E0,0E0,1.7395353E0,0E0,0E0,4.3135214E-1,1.1918405E0,6.50985E-1,1.0322773E0,0E0,0E0,0E0,8.3356404E-1,1.0454032E0,0E0,0E0,0E0,1.6121626E-1,0E0,0E0,0E0,0E0,0E0,0E0],"parents":[2147483647,0,0,1,1,2,2,3,3,4,4,5,5,6,6,9,9,12,12,13,13,14,14,15,15,19,19,20,20,24,24],"right_children":[2,4,6,8,10,12,14,-1,-1,16,-1,-1,18,20,22,24,-1,-1,-1,26,28,-1,-1,-1,30,-1,-1,-1,-1,-1,-1],"split_conditions":[2.9033129E1,7.2243535E3,3.300228E1,-1.5276068E-1,9.9496747E2,6.1189547E0,5E0,-4.5805715E-2,-6.2829168E-3,4.0296042E3,-3.6789354E-2,-1.105289E-2,3.1590808E3,3.0676073E-1,-3.046434E-1,9.428436E2,-2.9974738E-2,4.79127E-2,5.7838415E-3,2.6219249E-2,1.0703171E4,-4.358647E-3,3.7028067E-2,-7.20156E-3,1.39093E-1,-1.9445218E-3,-5.6548942E-2,-2.4212424E-2,2.6328076E-2,8.110666E-3,3.9800283E-2],"split_indices":[22,6,22,27,19,24,16,0,0,9,0,0,9,25,35,19,0,0,0,28,4,0,0,0,33,0,0,0,0,0,0],"split_type":[0,0,0,0,0,0,0,0,0,0,0,0,0,0,0,0,0,0,0,0,0,0,0,0,0,0,0,0,0,0,0],"sum_hessian":[2.985829E1,1.4893045E1,1.4965245E1,5.578025E0,9.315021E0,6.5795674E0,8.385678E0,4.494842E0,1.0831827E0,6.9514074E0,2.3636124E0,1.1245053E0,5.455062E0,5.2175503E0,3.1681275E0,5.928228E0,1.0231799E0,4.3998766E0,1.0551857E0,3.1227474E0,2.094803E0,1.0636227E0,2.1045048E0,1.6277485E0,4.3004794E0,1.0220128E0,2.1007345E0,1.0185598E0,1.0762433E0,1.1709012E0,3.129578E0],"tree_param":{"num_deleted":"0","num_feature":"37","num_nodes":"31","size_leaf_vector":"1"}},{"base_weights":[-6.304079E-2,8.788734E-2,-4.2252775E-2,-3.1474504E-1,3.0252114E-1,-3.8332477E-2,3.0199025E-2,-5.584651E-1,4.5948148E-1,5.824413E-1,-3.6353305E-2,-4.718977E-3,-3.7270155E-2,-1.9784149E-2,5.5448616E-1,3.8291525E-2,2.088378E-4,-5.8006234E-2,7.402497E-1,-2.3212254E-2,2.92455E-2,4.2399436E-2,-6.275245E-3],"categories":[],"categories_nodes":[],"categories_segments":[],"categories_sizes":[],"default_left":[0,0,0,0,0,0,0,0,0,0,0,0,0,0,0,0,0,0,0,0,0,0,0],"id":50,"left_children":[1,3,-1,5,7,-1,9,11,13,15,-1,-1,-1,-1,17,-1,-1,19,21,-1,-1,-1,-1],"loss_changes":[3.5442162E0,2.2974298E0,0E0,1.4857187E0,2.5731738E0,0E0,3.033118E0,1.8896502E-1,1.4448073E0,4.3169057E-1,0E0,0E0,0E0,0E0,1.6408663E0,0E0,0E0,1.3592086E0,1.1224365E0,0E0,0E0,0E0,0E0],"parents":[2147483647,0,0,1,1,3,3,4,4,6,6,7,7,8,8,9,9,14,14,17,17,18,18],"right_children":[2,4,-1,6,8,-1,10,12,14,16,-1,-1,-1,-1,18,-1,-1,20,22,-1,-1,-1,-1],"split_conditions":[3.12664E2,2.6828333E1,-4.2252775E-2,2.8656008E-2,-6.214597E-3,-3.8332477E-2,3.2734573E-1,-1.7346407E-1,4.809194E0,2.4681985E3,-3.6353305E-2,-4.718977E-3,-3.7270155E-2,-1.9784149E-2,3.2211673E-2,3.8291525E-2,2.088378E-4,2.6186861E-2,1.2058914E2,-2.3212254E-2,2.92455E-2,4.2399436E-2,-6.275245E-3],"split_indices":[14,22,0,36,26,0,25,35,24,8,0,0,0,0,10,0,0,14,14,0,0,0,0],"split_type":[0,0,0,0,0,0,0,0,0,0,0,0,0,0,0,0,0,0,0,0,0,0,0],"sum_hessian":[2.8335194E1,2.4484528E1,3.8506646E0,8.335296E0,1.6149233E1,3.0915601E0,5.243735E0,2.0858505E0,1.4063382E1,3.1734998E0,2.0702353E0,1.0464171E0,1.0394334E0,1.0791856E0,1.2984197E1,2.150001E0,1.0234989E0,3.1690934E0,9.815104E0,2.1218338E0,1.0472597E0,8.757362E0,1.0577413E0],"tree_param":{"num_deleted":"0","num_feature":"37","num_nodes":"23","size_leaf_vector":"1"}},{"base_weights":[-2.7293663E-2,5.0898963E-1,-2.8085944E-1,-2.7358878E-1,7.7593565E-1,-6.0757524E-1,2.8591916E-1,-2.46455E-2,2.8516336E-3,-1.0438274E-3,4.8684113E-2,-9.734001E-2,-7.644443E-1,-2.1190139E-2,5.181538E-1,-2.5720943E-2,1.7915627E-2,-4.4275414E-2,-3.1947389E-3,7.079578E-1,-8.087543E-3,-7.336087E-4,4.481568E-2],"categories":[],"categories_nodes":[],"categories_segments":[],"categories_sizes":[],"default_left":[0,0,0,0,0,0,0,0,0,0,0,0,0,0,0,0,0,0,0,0,0,0,0],"id":51,"left_children":[1,3,5,7,9,11,13,-1,-1,-1,-1,15,17,-1,19,-1,-1,-1,-1,21,-1,-1,-1],"loss_changes":[4.1033263E0,2.2432842E0,3.9624333E0,2.642546E-1,1.2118478E0,9.814124E-1,1.5628359E0,0E0,0E0,0E0,0E0,1.0008106E0,7.8294945E-1,0E0,9.712589E-1,0E0,0E0,0E0,0E0,7.5077033E-1,0E0,0E0,0E0],"parents":[2147483647,0,0,1,1,2,2,3,3,4,4,5,5,6,6,11,11,12,12,14,14,19,19],"right_children":[2,4,6,8,10,12,14,-1,-1,-1,-1,16,18,-1,20,-1,-1,-1,-1,22,-1,-1,-1],"split_conditions":[3.168661E2,1.6207963E-1,4.3395523E2,4.4159225E1,3.2528464E-2,1.1266068E3,4.5629845E0,-2.46455E-2,2.8516336E-3,-1.0438274E-3,4.8684113E-2,1.9299902E-2,5.4142418E1,-2.1190139E-2,4.4143614E-3,-2.5720943E-2,1.7915627E-2,-4.4275414E-2,-3.1947389E-3,-2.0885529E-2,-8.087543E-3,-7.336087E-4,4.481568E-2],"split_indices":[13,33,11,21,32,8,20,0,0,0,0,10,21,0,34,0,0,0,0,34,0,0,0],"split_type":[0,0,0,0,0,0,0,0,0,0,0,0,0,0,0,0,0,0,0,0,0,0,0],